#ifndef CHESS_NET_HPP
#define CHESS_NET_HPP

#include <cstdint>

// Quantization Parameters
const int SCALE_FACTOR = 64;
const int SCALE_FACTOR_SQ = 4096;

// Hidden Layer Weights: Shape [16][768] (out_features x in_features)
const int16_t HIDDEN_WEIGHTS[16][768] = {
    {-1, 2, 1, 1, -2, 0, -1, -2, 23, 49, 25, 36, 82, 74, 151, 203, 37, 35, 18, 9, 27, 27, 61, 76, 30, 8, 16, -5, 11, 15, 16, 38, 23, 9, 5, 13, 12, 10, 16, 26, 31, 20, 16, 14, 12, 23, 8, 40, 46, 14, 26, 16, 11, -2, 22, 45, 0, -1, 0, 1, 0, 2, 2, -2, 6, 2, 14, 3, -25, 15, -1, -5, -79, -171, -96, -105, -79, -87, -94, -29, -162, -90, -13, -38, -19, -14, -35, -54, -160, -37, -44, -42, -44, -32, -46, -138, -94, -86, -50, -31, -70, -59, -78, -121, -84, -64, -46, -64, -78, -44, -83, -82, 5, -51, -35, -95, -58, -81, -78, -64, -159, 1, -113, -92, -93, -62, 15, -47, -39, -49, -50, -28, -53, -17, -58, -32, -149, -146, -75, -45, -56, -87, -112, -79, -133, -101, -56, -92, -56, -71, -62, -134, -111, -72, -62, -73, -74, -49, -63, -99, -84, -69, -78, -62, -80, -68, -88, -80, -131, -74, -64, -74, -84, -83, -65, -103, -92, -123, -58, -96, -78, -119, -111, -42, -153, -88, -150, -90, -111, -120, -82, -125, -109, -88, -61, -58, -50, -29, -96, -91, -94, -111, -94, -78, -98, -118, -82, -101, -108, -129, -105, -115, -112, -101, -101, -93, -114, -105, -79, -123, -124, -109, -89, -138, -136, -119, -117, -135, -146, -131, -128, -157, -113, -145, -101, -146, -135, -141, -128, -135, -112, -120, -98, -136, -139, -166, -151, -122, -107, -107, -121, -181, -173, -166, -159, -123, -193, -201, -173, -149, -227, -163, -191, -200, -321, -237, -280, -200, -222, -230, -214, -251, -233, -228, -220, -230, -261, -232, -270, -306, -257, -252, -226, -255, -194, -233, -222, -245, -264, -273, -258, -233, -220, -247, -249, -226, -256, -278, -234, -249, -262, -239, -298, -240, -226, -219, -241, -253, -235, -244, -275, -240, -289, -225, -216, -127, -223, -267, -252, -248, 87, 84, 65, 37, 67, 75, 71, 53, 84, 96, 43, 47, 62, 57, 44, 62, 60, 75, 59, 52, 50, 45, 54, 61, 38, 56, 55, 50, 45, 47, 60, 60, 30, 50, 34, 44, 39, 43, 54, 58, 17, 39, 39, 28, 32, 33, 38, 36, 75, 76, 69, 35, 37, 32, 38, 50, 60, 55, 50, 31, 7, 54, 60, 66, 2, -2, -1, 1, 0, -2, 1, -2, -28, 15, -19, -24, -15, 9, -6, -34, -9, 1, 4, -5, 2, -9, 1, -29, -9, -16, -8, -11, 6, -12, -15, -25, -36, -37, -39, -21, -32, -37, -40, -63, -113, -150, -172, -129, -159, -236, -208, -113, -309, -317, -328, -344, -345, -359, -315, -318, 0, -2, 1, 0, -2, 2, -1, 1, -285, -301, -244, -200, -265, -301, -293, -356, -168, -185, -215, -209, -234, -293, -275, -355, -340, -215, -178, -204, -144, -186, -201, -320, -177, -229, -143, -163, -176, -161, -228, -287, -236, -93, -120, -142, -154, -170, -75, -162, -179, -200, -149, -148, -59, -108, -210, -213, -80, -85, -121, -284, -323, 103, -251, -45, -103, -169, -208, -59, -179, -216, -187, -21, -240, -263, -287, -246, -292, -307, -300, -335, -284, -214, -209, -241, -252, -238, -276, -302, -165, -211, -217, -232, -238, -241, -289, -274, -191, -304, -248, -268, -281, -306, -241, -116, -240, -294, -253, -279, -243, -249, -220, -285, -265, -307, -294, -326, -290, -242, -126, -195, -240, -269, -311, -356, -236, -262, -193, -194, -245, -294, -270, -289, -288, -276, -243, -172, -307, -353, -317, -214, -303, -311, -392, -575, -233, -267, -296, -304, -281, -241, -236, -464, -246, -195, -287, -250, -204, -210, -362, -342, -311, -249, -204, -234, -198, -208, -294, -181, -333, -230, -352, -305, -327, -313, -365, -314, -373, -214, -214, -277, -286, -345, -253, -374, -317, -244, -301, -210, -255, -291, -238, -222, -348, -166, -203, -334, -230, -242, -272, -319, -209, -326, -329, -343, -402, -411, -431, -528, -210, -210, -222, -179, -230, -158, -191, -175, -176, -195, -228, -211, -251, -269, -199, -157, -146, -301, -245, -359, -361, -292, -250, -181, -278, -217, -294, -349, -339, -386, -343, -99, -157, -235, -204, -361, -470, -378, -375, -41, -245, -231, -181, -338, -244, -263, -306, -144, -357, -235, -217, -225, -251, -305, -273, -363, 8, 23, 22, 18, 4, 9, 25, 9, 24, 36, 31, 24, 20, 23, 36, 20, 29, 48, 35, 26, 45, 48, 33, 34, 32, 47, 45, 53, 54, 63, 66, 56, 35, 64, 73, 72, 68, 62, 78, 50, 47, 82, 66, 78, 82, 78, 82, 47, 49, 86, 115, 114, 104, 94, 92, 72, 31, 62, 77, 102, 83, 86, 92, 46},
    {1, 1, 0, 1, -1, 0, -1, 2, 124, 43, 27, -40, -71, -62, -45, -121, 50, 35, 52, 35, 35, 44, 7, 25, 15, 41, 25, 41, 43, 39, 37, 27, 16, 31, 33, 33, 36, 37, 34, 20, 18, 36, 19, 26, 26, 24, 48, 18, 6, 19, 8, 22, 7, 58, 33, 19, 2, -1, 2, 0, -1, -2, -2, 0, 38, 51, 79, 59, 109, 44, 41, 38, 68, 94, 183, 135, 197, 179, 113, 87, 78, 106, 123, 130, 165, 208, 77, 107, 80, 49, 76, 77, 45, 65, 45, 77, 68, 69, 55, 34, 47, 45, 60, 59, 52, 67, 60, 80, 55, 66, 59, 54, 42, 67, 63, 60, 72, 96, 51, 56, 108, 55, 67, 54, 65, 38, 71, 53, 76, 86, 109, 81, 65, 60, 67, 76, 80, 106, 145, 209, 197, 126, 173, 81, 69, 124, 149, 111, 108, 139, 147, 68, 80, 76, 63, 99, 83, 78, 63, 75, 85, 64, 64, 67, 82, 71, 60, 107, 62, 82, 66, 64, 68, 87, 82, 67, 99, 76, 86, 75, 73, 118, 81, 105, 98, 169, 67, 94, 74, 64, 57, 66, 95, 97, 85, 86, 97, 143, 74, 63, 87, 62, 77, 38, 64, 91, 41, 64, 85, 78, 84, 62, 70, 73, 60, 58, 71, 76, 76, 70, 71, 76, 82, 74, 71, 71, 64, 42, 57, 61, 69, 84, 75, 79, 72, 53, 63, 62, 50, 88, 83, 62, 85, 76, 93, 83, 72, 65, 70, 72, 62, 70, 78, 74, 72, 72, 14, -17, -18, -16, -67, -104, 84, 7, -207, -206, -202, -78, -127, -73, -208, -220, -237, -194, -79, -212, -165, -123, -198, -226, -238, -215, -235, -264, -225, -279, -254, -250, -272, -269, -265, -265, -251, -223, -253, -238, -250, -269, -248, -300, -259, -252, -239, -239, -264, -263, -283, -280, -272, -226, -213, -207, -217, -274, -283, -295, -263, -241, -216, -213, 154, 150, 126, 108, 72, 99, 193, 258, 115, 67, 58, 97, 48, 68, 46, 43, 129, 99, 139, 123, 109, 125, 69, 61, 187, 99, 106, 99, 93, 94, 79, 52, 154, 85, 106, 81, 69, 90, 74, 46, 173, 94, 88, 82, 64, 78, 94, 100, 184, 90, 83, 75, 74, 85, 96, 107, 153, 148, 118, 84, 113, 98, 106, 121, 2, 0, 1, 0, -2, 2, 1, -2, -11, -24, -11, -26, -20, -50, -29, -14, -18, -32, -25, -28, -26, -23, -40, -14, -18, -19, -29, -22, -17, -28, -16, -19, -25, -25, -5, -7, -19, -20, -24, -22, -4, 41, 29, 42, 25, 34, 16, -15, -85, -21, -17, 62, 12, 16, -39, -78, -1, -1, -1, -2, 1, -2, -2, 0, -3, -70, -66, -81, -71, -74, -68, -65, -68, -72, -55, -75, -78, -90, -71, -64, -65, -77, -65, -84, -63, -68, -75, -70, -76, -53, -57, -29, -16, -63, -24, -75, -83, -41, -40, 21, -2, -1, -27, -69, -94, 21, 16, 107, -20, 101, -71, -56, -28, -83, 43, -5, 106, 28, -28, -24, -54, -37, -24, -34, -45, -25, -44, -48, -37, -49, -76, -115, -122, -76, -75, -55, -94, -94, -104, -102, -95, -108, -95, -145, -72, -107, -90, -88, -85, -96, -110, -69, -93, -49, -65, -68, -48, -75, -51, -107, -53, -41, -56, -11, -87, -64, -63, -98, -32, -45, 40, 26, -26, 32, -89, -11, -104, -104, -35, 30, 49, -60, -44, -102, -25, -15, -48, -42, -16, -33, -87, -98, -109, -98, -108, -125, -115, -121, -96, -110, -123, -96, -113, -126, -127, -119, -88, -91, -118, -102, -115, -106, -116, -111, -92, -102, -109, -89, -118, -100, -77, -105, -68, -118, -95, -110, -106, -65, -93, -80, -113, -111, -105, -60, 7, 36, -18, 4, -120, -89, -96, -83, -85, 29, -9, -61, -58, -90, -80, -107, 36, 31, 1, 20, -139, -137, -177, -127, -219, -159, -204, -168, -169, -113, -165, -170, -167, -176, -164, -177, -165, -158, -159, -135, -147, -137, -159, -160, -172, -149, -120, -75, -122, -160, -146, -154, -110, -161, -57, -85, -77, -145, -179, -89, -90, -142, -110, 108, -46, -15, -81, 30, -126, -131, -160, -158, 41, -2, 51, -123, -196, -173, 49, -40, 25, -202, -31, -258, -94, -188, 249, 194, 68, 57, 57, 60, 67, 62, 94, 74, 78, 79, 75, 78, 73, 79, 94, 74, 83, 94, 86, 87, 76, 109, 105, 73, 96, 74, 90, 90, 77, 84, 77, 86, 87, 89, 110, 124, 82, 103, 100, 77, 73, 123, 174, 136, 129, 127, 186, 69, 38, 52, 118, 110, 103, 181, 240, 184, 191, 138, 157, 129, 184, 241},
    {1, 1, 1, 2, 1, -1, 0, 1, -256, -62, -132, -68, -139, -8, -93, -44, -75, -64, -67, -63, -82, -68, -4, -49, -34, -41, -47, -59, -41, -46, -31, -28, -12, -47, -30, -64, -35, -50, -53, -20, -9, -33, -27, -48, -42, -24, -54, -12, -1, 29, -23, 68, -35, -64, -73, -35, 1, 1, 1, -1, 2, -1, 2, 2, -35, -25, 6, -51, -113, -82, -42, 7, -40, -51, -73, -156, -277, -129, -96, -83, -40, -68, -137, -82, -161, -192, -141, -89, -54, -39, -62, -70, -76, -124, -67, -67, -31, -66, -36, -44, -21, -67, -88, -71, -64, -41, -29, -47, -56, -56, -64, -58, 70, 19, -12, -7, -1, -73, -78, -57, 110, 20, -26, -28, -50, -57, -52, -107, -114, -130, -130, -114, -66, -94, 13, -2, -72, -64, -98, -91, -127, -29, -49, -52, -42, -90, -143, -110, -41, -110, -41, -65, 13, -65, -98, -67, -65, -29, -78, -57, -52, -27, -59, -64, -38, -71, -92, -91, -58, -61, -41, -52, -56, -59, -103, -80, 1, -5, -25, 33, -52, -108, -92, -125, 63, 50, -5, -39, -32, -59, -106, -130, -60, -58, -52, -162, -90, -154, -116, -111, -72, -8, -30, -121, -91, -101, -113, -122, -72, -102, -36, -138, -92, -107, -114, -134, -85, -83, -64, -105, -105, -79, -119, -110, -69, -76, -72, -59, -116, -101, -127, -99, -61, -37, -71, -40, -67, -72, -69, -91, -39, -42, -27, -69, -102, -103, -135, -92, -25, 3, -14, -33, -43, -63, -93, -92, -165, -79, -31, -92, 15, -127, -185, -153, -143, -128, -144, -188, -80, -90, -132, -181, -154, -116, -94, -181, -142, -112, -163, -202, -62, -147, -78, -189, -127, -161, -153, -204, -133, -64, -121, -104, -163, -215, -188, -224, -87, -108, -110, -102, -133, -163, -221, -212, -98, -38, -62, -77, -158, -195, -216, -223, 42, -63, -76, -193, 16, -208, -185, -211, 43, 14, 17, 49, -10, -12, -40, -89, 28, 18, 45, 33, 7, 15, -3, -39, -5, 3, 4, -12, -3, 1, -52, -54, -8, 63, 55, 2, 25, -9, -9, -33, 58, 70, 69, 68, 29, 1, -24, -41, 129, 82, 118, 108, 50, -4, -31, -30, 116, 137, 169, 124, 46, 0, -24, -17, 48, 52, 57, 34, -10, -29, -8, -35, 0, 0, -1, -1, -2, -1, -1, -1, 42, 63, 54, 44, 49, 63, 65, 31, 34, 48, 55, 39, 45, 43, 62, 22, 23, 37, 55, 53, 69, 49, 57, 22, 16, 21, 38, 49, 56, 54, 61, 35, -88, -130, -149, -11, 28, 95, 140, 92, -300, -297, -153, -125, -148, 109, 133, 157, -2, 1, -2, 0, -1, 1, 1, -1, 7, 9, -10, 36, 30, 46, 2, 35, -5, 8, 26, 24, 40, 34, 42, 13, 7, 58, 42, 50, 35, 39, 45, 39, 41, 0, 57, -21, 73, 48, 77, 47, 19, 29, 51, 51, 8, 13, 64, 78, -44, -8, -277, 18, -221, 0, 101, 10, -16, -103, 46, -71, -56, 81, 63, 64, 0, 50, 69, -5, 18, 75, 92, 30, -77, 83, 35, 14, -30, 55, 34, 16, 50, 63, 55, 55, 64, 55, 82, 71, 42, 77, 68, 65, 51, 67, 80, 59, 44, 6, 76, 42, 65, 82, 67, 71, 10, -40, 19, 42, 48, 61, 69, 113, -112, -16, -330, -34, 16, 28, 85, 60, 25, -91, -40, 22, -52, 72, 57, 70, 38, -48, -72, -29, -7, -1, 64, 33, 14, 50, 54, 75, 81, 91, 57, 65, -53, 38, 45, 69, 85, 79, 76, 41, -48, 46, 31, 35, 73, 67, 71, 60, 42, -10, 68, 5, 92, 78, 119, 78, 39, 69, 8, 24, 73, 93, 107, 115, 32, -128, -244, -45, -21, 37, 94, 111, 93, 33, 81, -182, 37, 94, 44, 92, -79, -220, -249, -329, -255, -94, 55, 21, 17, 172, 106, 198, 188, 195, 256, 117, 58, 226, 202, 229, 238, 239, 256, 264, 138, 237, 204, 216, 226, 224, 270, 247, 135, 106, 244, 189, 246, 247, 251, 252, 120, 18, 124, 182, 264, 257, 313, 358, 143, 117, -397, 86, 170, 125, 263, 277, 188, 147, 178, -202, -182, 115, 243, 271, -727, -156, -211, -717, -72, 160, 112, 151, 30, 34, 1, -17, 2, 3, 25, 20, -12, 3, 3, -14, -6, 19, 15, 14, -18, 16, 0, 8, 16, 7, 6, -13, -1, 31, 21, 9, 2, -7, -4, -4, 9, 29, 5, 8, 3, -1, -14, -17, 30, 25, 16, 15, -21, -7, 3, -5, 46, 6, 16, -4, -3, 6, 50, 86, 2, 26, 27, 69, 16, 90, 131, 105},
    {2, 2, 0, 0, -1, 1, 1, 1, -347, -358, -446, -433, -490, -516, -572, -562, -332, -371, -388, -378, -494, -481, -459, -489, -203, -306, -403, -368, -424, -479, -469, -463, -171, -178, -166, -208, -440, -485, -245, -344, -165, -185, -116, -100, -173, -181, -202, -183, -150, -145, -213, -212, -198, -157, -184, -170, -1, 2, -2, -2, 0, 2, 2, -2, -61, -38, -26, -33, 22, -69, -50, -18, 103, 201, 114, 164, 97, 137, 172, 23, 216, 127, 22, -76, -23, -71, 39, 97, 79, -4, -92, -85, -75, -81, -53, 22, 63, 91, -63, -92, -32, -39, 67, 42, -24, 25, -78, -83, -68, -61, -48, 43, -47, 19, -75, -46, 8, -37, 61, 1, -20, -52, 32, 23, -40, -55, -31, -16, -46, -78, 59, 20, 83, -36, 0, -34, 83, 93, 35, -35, 56, 83, 71, -31, 131, 83, -139, 93, -247, 34, -27, 85, 77, -4, 39, -79, -83, -211, -66, 77, 88, -9, -110, -99, -175, -85, 30, 32, 95, -14, -101, -120, -129, -117, -89, 43, 41, 45, -89, -32, -83, 14, -20, 40, -18, 51, 83, 87, 93, -31, -7, -8, -39, -58, -163, -114, -72, -152, -91, 28, -173, -112, -124, -85, -75, -73, 9, -71, -139, -139, -37, -71, -61, -72, -22, -188, -50, -108, -131, -23, -72, -102, -161, -52, -95, -104, -123, -53, -30, -43, -86, 17, -77, -121, -97, -41, 12, -80, -101, -18, -65, -64, -95, -150, -100, -88, -91, -83, -120, -198, -86, -83, -75, -115, -24, 32, -161, -104, -154, -86, -64, -213, -110, -168, -60, -157, -217, -155, -168, -108, -105, -75, -30, -190, -151, -205, -171, -108, -448, -5, -69, -116, -158, -74, -130, -346, -457, -18, -60, -271, -121, -136, -163, -129, -181, -66, -98, -198, -142, -141, -224, -130, -142, -47, -122, -181, -163, -114, -165, -104, -176, -75, -80, -255, -144, -152, 42, -442, -11, 26, 26, 46, 39, 59, 42, 61, 167, 119, 46, 36, 5, 36, 57, 80, 157, 125, 56, -10, 33, 44, 40, 98, 47, 34, 76, -34, 5, 34, 63, 39, 51, 30, 52, -51, -4, 18, 35, 58, 51, 72, 58, -14, -5, 21, 23, 32, 18, 60, 7, -45, 13, -2, 0, 29, 37, 45, -53, -33, 21, 6, 28, 49, 33, 59, 1, -1, 2, -1, 1, -1, 2, 0, -33, 3, -8, 3, -18, -39, -25, -43, -22, 3, -19, -25, -31, -38, -22, -32, -25, -10, 4, 15, 8, -40, -24, -39, 27, 14, 16, 12, 27, 23, 20, 7, -3, -10, 2, 0, -6, 13, 4, 26, -58, -56, -57, -51, -100, -87, -173, -135, 1, 2, -2, 2, 0, -1, 1, -1, -172, -74, -230, -181, -143, -119, -87, -197, -228, -145, -111, -134, -163, -222, -151, -252, -83, -152, -111, -143, -140, -142, -118, -135, -138, -199, -107, -107, -132, -149, -181, -175, -166, -104, -87, -88, -77, -71, -120, -137, -182, -140, -70, -128, -128, -129, -71, -219, -130, -151, -248, -212, -114, -218, -141, -129, -12, -14, -34, -34, -74, -50, -14, -119, -268, -181, -170, -157, -139, -192, -162, -125, -227, -153, -132, -100, -129, -237, -300, -406, -212, -139, -107, -133, -108, -101, -119, -329, -148, -104, -115, -98, -103, -89, -119, -136, -193, -91, -92, -116, -106, -118, -102, -123, -210, -104, -175, -121, -109, -255, -138, -318, -172, -173, -126, -78, -217, -214, -205, -186, -61, -76, -136, -88, -119, -81, -234, -98, -243, -139, -224, -245, -282, -475, -444, -475, -198, -226, -201, -218, -234, -476, -488, -449, -196, -150, -206, -184, -160, -209, -165, -490, -145, -138, -140, -196, -235, -187, -151, -150, -160, -167, -145, -179, -144, -146, -137, -194, -134, -126, -159, -166, -344, -164, -289, -166, -161, -199, -167, -315, -170, -169, -136, -142, -168, -198, -325, -401, -410, -209, -385, -280, -323, -285, -255, -328, -390, -482, -478, -480, -247, -240, -246, -247, -327, -486, -433, -479, -272, -258, -208, -254, -249, -368, -419, -470, -449, -301, -337, -188, -208, -267, -226, -176, -371, -315, -246, -360, -273, 73, -209, -200, -318, -441, -188, -241, -197, -81, -127, -245, -329, -292, -373, -313, -324, -396, -259, -244, -402, -480, -420, -241, -314, -62, -282, -248, 128, 89, 61, 39, 65, 45, 37, 69, 39, 6, 19, 21, -8, -6, -5, 14, 6, 7, 9, 31, 25, 4, -9, 13, 34, -3, 29, 32, 10, -6, 14, 35, 15, 45, 47, 28, 7, 14, 7, 44, 89, 44, 29, 32, 10, 14, 32, 48, 108, 28, 31, 16, -7, -13, 7, 72, 161, 100, 100, 117, 88, 88, 81, 124},
    {2, -2, -1, -1, 0, 1, 2, 0, -371, -465, -461, -492, -575, -515, -192, -462, -87, -126, -198, -149, -169, -182, -144, -94, -24, -45, -55, -35, -57, -53, -47, -67, -4, -8, -24, -16, -8, 4, 3, 1, 5, 1, -3, -8, -4, 0, -4, -11, -8, -11, -27, -15, -19, -15, -15, -18, -1, -2, 0, 0, -2, -2, -1, 1, -123, -170, -190, -143, -13, -60, -174, -81, -119, -172, -156, -227, -273, -113, -332, -21, -266, -199, -132, -108, -137, -126, -146, -183, -273, -105, -103, -115, -121, -124, -48, -194, -175, -235, -113, -111, -166, -142, -250, -306, -316, -191, -160, -173, -150, -189, -194, -324, -158, -164, -178, -210, -245, -292, -378, -388, -300, -305, -309, -208, -250, -307, -309, -406, -194, -238, -328, -278, -297, -225, -290, -186, -286, -365, -332, -225, -174, -261, -290, -225, -354, -344, -215, -355, -215, -248, -234, -229, -303, -291, -221, -201, -203, -196, -189, -261, -269, -266, -205, -234, -227, -264, -271, -191, -258, -243, -193, -215, -222, -226, -292, -337, -325, -265, -217, -239, -237, -334, -312, -360, -298, -374, -344, -327, -333, -362, -361, -337, -326, -267, -195, -228, -183, -205, -503, -494, -291, -271, -307, -240, -292, -352, -320, -295, -362, -286, -351, -341, -366, -329, -450, -363, -318, -235, -365, -347, -314, -334, -370, -524, -300, -417, -288, -291, -275, -274, -328, -397, -353, -251, -334, -359, -228, -436, -384, -531, -382, -371, -409, -365, -392, -413, -326, -409, -479, -453, -419, -428, -451, -448, -596, -606, -273, -247, -226, -170, -247, -275, -246, -358, -260, -262, -215, -287, -237, -285, -258, -299, -340, -208, -260, -257, -223, -259, -136, -103, -336, -236, -255, -303, -280, -253, -231, -137, -277, -295, -283, -267, -254, -278, -287, -215, -284, -282, -301, -286, -265, -304, -254, -219, -291, -280, -292, -260, -273, -289, -286, -283, -358, -350, -339, -398, -399, -159, -414, -447, 17, 61, 90, 100, 84, 74, 36, 13, 44, 100, 123, 117, 108, 80, 49, 42, 74, 84, 80, 84, 90, 63, 70, 33, 31, 89, 77, 72, 72, 77, 69, 32, 35, 67, 53, 60, 58, 64, 64, 34, 10, 47, 31, 23, 36, 32, 23, 12, 25, 52, 33, 14, 12, 12, 12, 3, 21, 30, 22, -2, -22, -3, 3, -8, -2, 1, 0, -1, 0, 1, 1, -1, 61, 34, 40, 33, 30, 33, 52, 64, 56, 40, 30, 15, 28, 49, 42, 62, 37, 28, 34, 32, 40, 25, 37, 45, 43, 29, 31, 10, 32, 39, 38, 47, 50, 44, 14, 20, 35, 30, 67, 74, 101, 87, 64, 41, 97, 139, 231, 220, 1, 1, 1, 0, -1, 2, 0, 2, -168, -15, -153, -138, -101, -105, 2, -43, 38, -37, -52, -108, -85, -64, -91, -58, -117, -92, -90, -58, -97, -79, -80, -125, -147, -113, -85, -44, -90, -80, -141, -155, -174, -60, -55, -82, -82, -48, -79, -159, -160, -126, -64, -39, -32, -48, -70, -88, -125, -172, -125, -138, -94, -128, -115, -52, -10, 16, 19, -15, -44, -19, 8, 1, -147, -89, -184, -92, -145, -169, -60, -145, -74, -129, -25, -74, -61, -115, -100, -15, -138, -62, -61, -69, -81, -74, -55, -126, -87, -65, -82, -50, -48, -54, -88, -80, -102, -80, -117, -78, -74, -32, -49, -105, -186, -118, -96, -89, -7, -87, -71, -168, -173, -160, -80, -49, -78, -102, -113, -118, -21, -42, -46, -13, -48, 0, -24, -23, -114, -97, -140, -204, -226, -230, -228, -180, -263, -112, -98, -146, -142, -202, -192, -231, -132, -191, -102, -155, -154, -149, -153, -165, -164, -101, -154, -165, -209, -167, -159, -187, -154, -115, -84, -144, -166, -147, -105, -201, -125, -182, -160, -144, -111, -170, -134, -96, -90, -122, -94, -110, -106, -171, -133, -110, -112, -72, -78, -92, -72, -15, -19, -98, -267, -168, -201, -213, -271, -314, -275, -256, -285, -306, -279, -215, -210, -230, -231, -253, -311, -284, -332, -342, -319, -275, -251, -212, -201, -212, -224, -175, -255, -238, -194, -212, -233, -193, -208, -167, -153, -131, -163, -230, -208, -161, -225, -140, -176, -202, -13, -252, -256, -233, -277, -146, -208, -168, -162, -208, -140, -114, -92, -59, -195, 104, -119, -123, 81, 87, 38, 18, 7, 53, 68, 64, 89, 67, 39, 22, 36, 35, 31, 49, 31, 48, 25, 10, 6, 16, 20, 31, 28, 47, 28, 27, 16, 18, 34, 39, 37, 42, 31, 21, 23, 24, 42, 53, 32, 60, 35, 28, 37, 15, 39, 53, 91, 67, 57, 33, 55, 39, 36, 59, 81, 86, 81, 31, 30, 28, 47, 44},
    {1, 2, 1, -1, 1, -2, 1, 1, -6, -76, -17, -47, -37, -31, -61, -14, 23, 45, 7, 12, 23, 24, 9, 6, 47, 41, 22, 16, 43, 29, 58, 45, 35, 51, 44, 58, 48, 45, 37, 44, 28, 47, 42, 56, 44, 31, 64, 25, 24, 43, 35, 78, 62, 87, 49, 18, -1, 0, 0, 2, -2, 2, -1, -2, -3, 56, 32, 31, 55, 24, 48, 1, 45, 44, 87, 83, 69, 93, 15, 15, 37, 66, 61, 40, 67, -12, 51, 9, 44, 32, 55, 60, 39, 37, 28, 33, 60, 72, 57, 61, 48, 54, 58, 76, 71, 67, 64, 107, 94, 85, 78, 64, 62, 86, 81, 119, 103, 119, 79, 53, 104, 83, 103, 80, 97, 107, 86, 100, 45, 75, 39, 41, 70, 33, 104, 55, 96, 91, 104, 82, 104, 66, 93, 85, 67, 74, 65, 87, 63, 46, 61, 28, 72, 63, 71, 71, 75, 65, 83, 71, 104, 73, 98, 88, 86, 82, 70, 108, 48, 99, 101, 112, 111, 95, 102, 75, 91, 93, 143, 141, 135, 118, 97, 74, 128, 131, 94, 182, 116, 118, 141, 112, 71, 73, 8, 22, 47, 85, 73, 16, 115, 102, 114, 53, 75, 76, 22, 105, 116, 126, 125, 77, 120, 106, 49, 97, 115, 127, 114, 106, 85, 123, 103, 102, 132, 121, 129, 95, 104, 105, 69, 110, 125, 126, 130, 120, 127, 142, 112, 105, 126, 120, 130, 162, 174, 146, 92, 101, 145, 137, 145, 145, 142, 155, 104, 126, -746, -653, -770, -446, -564, -601, -681, -773, -542, -430, -386, -302, -362, -403, -683, -606, -650, -744, -606, -599, -491, -495, -635, -656, -675, -662, -562, -706, -562, -576, -635, -685, -716, -652, -610, -602, -667, -611, -671, -647, -644, -696, -621, -730, -658, -707, -615, -676, -647, -640, -746, -688, -730, -696, -690, -637, -725, -760, -803, -125, -791, -668, -719, -732, 4, 2, -1, 40, -21, -17, -30, -8, -24, -28, -14, -8, -37, -30, -32, -47, -25, -9, -14, 9, 15, 3, -7, -2, 20, -4, 19, 12, 30, 16, 30, 6, 12, 16, 42, 30, 43, 58, 38, 14, 0, 22, 36, 41, 62, 43, 39, 14, -13, -6, 22, 28, 50, 48, 22, -8, 0, -14, -10, 8, 66, 31, 17, 3, -2, 2, 2, -2, 1, 0, -1, -1, -7, -40, -22, -29, -26, -39, -46, -8, -22, -44, -29, -33, -34, -19, -51, -21, -28, -8, -36, -28, -39, -29, -8, -27, -18, -36, -19, -52, -71, -37, -52, -19, -26, 4, 3, -14, -3, 0, -47, -40, -126, -70, -55, -11, -35, -31, -107, -115, 0, 2, 1, 0, 1, 1, -1, 1, -88, -55, -93, -92, -80, -51, -49, -65, -85, -119, -88, -88, -75, -85, -112, -81, -57, -90, -64, -84, -72, -56, -71, -56, -43, -81, -54, -43, -44, -39, -44, -48, -97, -31, -44, -40, -81, -51, -39, -75, -121, -4, -71, 2, -53, 17, -105, -81, -56, -155, 108, 48, 242, -3, -91, -38, -59, -98, -4, -45, -61, 40, -21, -70, -44, 65, -76, -104, -125, -51, -38, -97, -96, -95, -89, -114, -95, -108, -76, -116, -64, -82, -88, -81, -91, -99, -94, -84, -89, -82, -55, -61, -68, -70, -91, -107, -71, -55, -56, -63, -89, -56, -66, -103, -29, -73, -43, -20, -30, -9, -75, -23, -142, -99, -22, 29, 51, -60, -70, -120, -78, -33, -44, -34, 40, -23, -101, -92, -116, -129, -119, -130, -135, -124, -127, -122, -133, -178, -162, -148, -142, -143, -164, -138, -131, -142, -133, -135, -155, -143, -144, -139, -118, -132, -104, -112, -119, -105, -110, -135, -119, -135, -135, -134, -143, -155, -108, -74, -177, -95, -142, -54, -15, -1, -68, -176, -156, -130, -155, 11, 19, -57, -95, -143, -150, -146, -53, 93, 20, 0, -146, -148, -238, -250, -248, -238, -244, -194, -262, -271, -270, -254, -262, -248, -256, -256, -225, -296, -224, -233, -235, -236, -237, -252, -243, -265, -238, -215, -241, -262, -208, -227, -213, -256, -201, -215, -214, -221, -267, -209, -242, -200, -212, -21, -187, -156, -77, -55, -162, -200, -299, -310, -234, 119, -57, -118, -291, -278, -124, -129, -86, 18, 27, -176, -270, -279, 12, 7, 19, 18, 34, 38, 32, 24, -15, 41, 40, 39, 39, 43, 51, 34, -8, 19, 33, 28, 27, 26, 28, 31, -7, 34, 23, 24, 17, 20, 33, 19, -4, 29, 7, 10, 1, 17, 22, 1, 16, 19, 16, 30, -7, 0, 21, 0, 26, 21, 10, 34, 40, 41, 37, 8, -4, 25, 42, 22, 20, 9, 12, 16},
    {1, 2, -1, 1, 2, 1, 0, 2, 173, -174, 34, -81, 105, 105, 148, 128, -95, -45, -108, -13, 2, 12, 46, 30, -25, -30, -28, -70, -19, -7, 3, -7, -18, -2, -32, 175, -27, 80, -21, 19, -7, -16, 26, -40, 32, -18, -3, -13, -8, -32, -9, -65, 9, 2, -15, -8, -1, -2, 0, -2, 0, -2, -2, 0, -48, -73, -99, -79, -20, -42, -59, -24, -26, -81, -61, -64, -186, -19, -111, -69, -76, -85, 260, -77, 228, -271, -48, -89, -64, 6, -73, -53, -77, 29, -43, -9, -11, -64, 30, -69, 6, -77, 5, -47, -20, 18, -51, 16, -39, 365, -21, 15, -9, -41, 21, -49, 27, -9, -44, -38, -52, -10, -49, -16, -17, -9, -23, -41, -50, 8, -19, -53, -106, 6, -56, -31, 13, -38, 28, -90, 32, -116, 8, -27, -61, 29, -162, 90, -85, 227, -64, 20, -46, -86, 23, -83, 62, -85, 14, -72, -28, -7, -40, 127, -36, 131, -57, -22, -2, -38, 178, -43, 109, -47, 52, -79, -30, 14, 10, -39, -26, 84, -22, -27, -36, -45, 6, 1, -12, -1, 54, -74, -34, -121, -72, -157, -48, -10, -38, -135, -15, -74, -85, 71, -61, -59, -89, -23, -16, -56, -45, -52, -40, -57, -80, -2, -6, -32, -52, 89, -70, 42, -34, 13, -3, -40, -5, -73, 138, -23, 44, -21, -23, -42, -24, -22, -25, -46, -53, -24, -14, -33, 2, -22, 4, -4, 0, -40, -17, -12, -18, 42, -10, -3, -29, -30, 16, -78, -164, -261, -304, -88, -181, -83, -52, -97, -88, -109, -80, -117, -37, -95, -136, -53, -120, -86, -100, 11, -112, -100, -62, -134, -29, 10, -86, -84, -81, -104, -118, -97, -101, -6, 9, 48, -87, -105, -48, -132, 2, -126, 55, -130, -17, -119, -87, -93, -121, -99, -85, -39, -91, -110, -78, -44, -88, -81, -93, -107, -80, -151, 106, 103, 36, -2, 3, 3, -52, 8, 84, 90, 20, -2, -19, -25, -54, 6, 87, 82, -8, -9, -1, -28, -5, 3, 62, 34, 2, 32, -4, 11, -24, 3, -7, 9, 5, 27, 53, -13, -28, -26, -28, -15, 10, 17, 24, -18, -15, -29, 70, 31, 29, -22, 13, -13, -36, -34, 62, 68, 1, 45, 21, 3, -14, -26, 1, 0, 0, 0, -2, 1, 1, -2, 1, 24, 19, 28, 21, 32, 29, 15, 3, 18, 12, 21, 31, 16, 33, 11, 10, 41, 5, 57, -33, 28, -9, 11, 10, -4, 3, -82, 46, 17, 40, 23, 18, 13, 29, 21, 5, 31, -7, 32, 20, -28, 8, -127, 36, -3, -29, 79, -1, 1, 0, 2, 0, 1, -1, 1, 46, -25, -2, -6, 7, 36, -2, 10, -79, -9, -54, 0, 8, 15, 17, 6, -14, -28, 2, -7, 12, 7, 14, -6, -15, 42, -73, 73, -665, 51, -352, 18, 35, -41, 25, -490, 67, -51, 54, -35, -10, 30, 78, 43, 85, 73, -32, 27, -6, 15, 53, -233, 84, -21, 23, -47, 3, 16, 0, -9, -112, -69, 15, -3, 54, -161, 1, -48, 57, 17, 64, 39, -77, 8, -60, 3, 15, 37, 16, 65, 4, -11, 4, -7, 16, 16, 30, 1, -41, 19, -37, 23, -861, 39, -412, 27, 40, 6, 18, -542, 50, -22, 33, -100, 37, 8, 69, -47, 19, -45, 31, -9, 3, 39, -5, -250, 8, 32, -29, -17, -71, -35, -65, 20, -70, -18, 44, -39, 3, -39, 7, -8, 31, 13, 41, 15, -103, 5, -79, 16, -33, 42, -8, 35, -61, -32, 6, -49, 46, -21, 24, -1, -31, 32, -56, 16, -868, 14, -821, 33, 5, -26, 35, -718, 47, -65, 39, -20, -11, 10, 3, -39, -51, 39, 14, -8, -12, -39, -76, -609, -10, -69, 21, -124, -65, 13, -197, -114, -596, 54, -62, -12, 48, 46, 104, 80, 124, 143, 158, 129, -91, 130, 71, 125, 90, 115, 90, 182, 98, 84, 124, 21, 107, 81, 147, 46, 68, 162, -146, 136, -856, 110, -856, 139, 136, 19, 138, -742, 114, -28, 170, -114, 115, 151, 97, -716, -209, -220, 95, 54, 101, 71, 95, -575, 71, -120, 66, 6, -71, -122, -261, 186, -726, 91, -719, 16, -14, -6, -2, -4, 9, 13, 16, 38, -6, 64, -12, 18, 16, 33, 41, 51, -5, 4, 10, -32, -21, 2, 36, 22, -26, -22, -26, -36, -17, -10, 21, 22, -44, -12, 50, -38, -9, -60, 20, -10, -23, 14, 65, 10, -38, 3, -25, -12, -6, 27, 136, 105, 48, 16, 87, -22, -8, -1, 63, 180, -28, -16, -13, -32},
    {-2, 0, 1, -1, 1, 1, 1, 0, -67, -55, -125, -73, -60, -80, -107, -46, -14, -37, -38, -45, -54, -59, -55, -46, -13, -19, -15, -22, -24, -17, -26, -17, -5, -17, -17, -24, -21, -21, -13, -10, -2, -13, -10, -7, -13, -10, -25, -4, 4, -20, -4, -17, -1, -36, -18, -5, 1, 0, -2, -1, 1, 1, 0, 0, -72, -44, -48, -63, -70, -51, -32, -61, -86, -75, -57, -72, -66, -43, -46, -55, -79, -66, -70, -47, -90, -89, -68, -72, -78, -69, -81, -81, -74, -95, -77, -78, -81, -59, -75, -76, -95, -75, -69, -63, -66, -77, -76, -81, -76, -86, -81, -79, -72, -71, -74, -77, -82, -83, -30, -57, -116, -68, -44, -73, -65, -32, -62, -37, -48, -58, -47, -37, 29, -47, -14, -89, -84, -87, -83, -102, -70, -69, -71, -67, -65, -90, -48, -61, -62, -109, -67, -77, -95, -69, -91, -82, -92, -88, -91, -63, -83, -90, -81, -102, -89, -96, -50, -94, -81, -86, -97, -72, -93, -87, -87, -61, -99, -101, -100, -104, -81, -116, -96, -58, -121, -150, -88, -94, -92, -76, -44, -14, -125, -100, -86, -77, -142, -139, -114, -29, -134, -128, -133, -43, -117, -127, -120, -53, -137, -122, -137, -102, -74, -112, -89, -110, -137, -143, -144, -105, -108, -154, -122, -131, -140, -144, -137, -122, -148, -130, -131, -122, -142, -131, -137, -140, -141, -139, -146, -123, -134, -132, -133, -127, -136, -121, -114, -114, -138, -145, -146, -137, -132, -135, -116, -115, -220, -185, -195, -216, -219, -206, -231, -120, -158, -158, -130, -128, -158, -213, -160, -126, -141, -148, -175, -149, -133, -202, -150, -115, -160, -140, -151, -155, -198, -158, -178, -161, -166, -173, -172, -221, -175, -189, -165, -186, -180, -175, -177, -188, -212, -204, -194, -161, -166, -190, -174, -202, -178, -206, -165, -151, -238, -210, -195, -184, -199, -189, -132, -62, 2, -11, -3, 8, 47, 18, -15, -11, 21, 12, 20, 25, 47, 40, 60, 82, 18, 21, 25, 27, 38, 32, 43, 83, -22, 5, 16, 27, 42, 39, 38, 80, 12, 15, 13, 23, 41, 33, 37, 88, -3, 25, 22, 27, 32, 44, 42, 52, -29, 1, 6, 33, 31, 23, 32, 44, -3, -10, 13, 49, 36, 53, 42, 67, 0, -1, 0, 1, 0, 2, 2, 1, 25, 33, 28, 36, 39, 42, 38, 20, 25, 34, 34, 28, 29, 35, 42, 17, 26, 30, 35, 27, 27, 30, 39, 18, 28, 43, 27, 39, 39, 32, 25, 16, 64, 39, 75, 45, 47, 30, 3, -7, 179, 188, 132, 92, 83, -9, -29, -51, 0, -1, 1, 1, -2, 0, 2, 0, 37, 32, 33, 63, 39, 45, 15, 62, 16, 38, 38, 53, 55, 54, 50, 39, 28, 40, 46, 50, 57, 50, 56, 29, 38, 23, 41, 42, 47, 47, 37, 46, 51, 28, 35, 32, 55, 43, 42, 60, 45, 0, 96, -21, 141, 27, 122, 98, 27, 76, -51, 47, -14, 28, 34, 56, 44, 6, -7, 44, 71, 37, -8, 65, 75, 42, 43, 41, 43, 39, 57, 63, 77, 56, 32, 53, 60, 55, 56, 52, 51, 57, 51, 50, 52, 61, 54, 59, 66, 40, 51, 38, 64, 32, 43, 57, 67, 62, 45, 66, 58, 36, 40, 80, 56, 54, 98, -16, 26, 81, 93, 58, 67, 84, 45, 18, 36, 76, 47, 64, 23, 41, 56, 54, 19, 50, 45, 54, 55, 59, 61, 80, 80, 74, 75, 59, 32, 66, 62, 74, 78, 82, 81, 60, 40, 73, 48, 77, 64, 69, 90, 57, 62, 50, 63, 78, 74, 62, 71, 70, 62, 69, 57, 91, 96, 77, 74, 87, 91, 106, 108, 64, 132, 65, 141, 82, 108, 115, 91, 122, 101, 118, 133, 113, 127, 128, 88, 178, 138, 62, 88, 132, 223, 253, 223, 258, 242, 258, 275, 297, 177, 243, 259, 259, 275, 265, 281, 254, 232, 262, 266, 251, 275, 276, 268, 276, 262, 225, 247, 251, 259, 250, 274, 294, 224, 238, 279, 264, 297, 313, 223, 299, 250, 252, 334, 171, 355, 207, 336, 332, 256, 312, 282, 231, 268, 307, 317, 292, 240, 297, 225, 278, 310, 253, 314, 270, -12, 13, 10, 21, 31, 30, 35, 37, -3, 2, 30, 32, 40, 49, 51, 41, 7, 15, 37, 35, 47, 57, 47, 42, 15, 15, 34, 32, 35, 44, 55, 28, 17, 19, 19, 32, 22, 38, 56, 36, 37, 23, 30, 4, -1, 24, 47, 20, 52, 40, 29, 32, 1, 20, 19, -3, 33, 37, 49, 66, -9, 33, 4, -12},
    {2, 0, 1, -1, -1, 0, -1, 2, 201, 191, 160, 129, 164, 124, -127, 26, 62, 48, 96, 50, 64, 66, 24, 39, 16, 50, 48, 71, 66, 35, 29, 14, 18, 62, 58, 89, 63, 51, 56, 14, 35, 63, 68, 37, 56, 51, 68, 30, 32, 82, 65, 41, 58, 63, 86, 37, 0, -2, -2, 0, -2, -2, 0, -1, 51, 41, 65, 49, 85, 44, -6, 97, 61, 86, 151, 80, 117, 145, 98, 87, 72, 91, 156, 165, 169, 150, 105, 98, 66, 112, 89, 88, 95, 86, 87, 84, 38, 42, 90, 63, 77, 78, 53, 57, 12, 55, 64, 49, 53, 133, 52, 33, 33, 74, 41, 27, 40, 35, 66, 47, 85, 12, 47, 38, 54, 48, 2, 25, 74, 41, 92, 71, 115, 87, 82, 64, 75, 99, 113, 101, 137, 128, 122, 82, 87, 129, 152, 127, 87, 139, 136, 107, 117, 95, 89, 115, 103, 82, 82, 116, 81, 93, 91, 81, 105, 93, 78, 95, 90, 88, 118, 68, 99, 102, 78, 102, 100, 83, 52, 64, 80, 88, 98, 74, 37, 68, 61, 43, 84, 63, 105, 112, 127, 177, 140, 175, 128, 141, 128, 198, 110, 103, 93, 177, 110, 151, 122, 145, 78, 98, 62, 121, 142, 126, 145, 77, 82, 88, 68, 131, 116, 93, 117, 97, 81, 85, 85, 101, 114, 108, 108, 105, 80, 121, 93, 98, 95, 77, 92, 105, 82, 97, 101, 99, 112, 118, 124, 104, 89, 109, 110, 148, 149, 142, 117, 103, 231, 247, 253, 216, 221, 231, 268, 317, 145, 170, 162, 202, 215, 232, 169, 162, 152, 196, 239, 147, 200, 214, 189, 224, 165, 176, 171, 162, 155, 124, 141, 198, 126, 156, 154, 110, 144, 171, 148, 143, 115, 144, 154, 132, 162, 166, 156, 165, 140, 137, 138, 101, 145, 138, 195, 178, 180, 117, 136, 59, 205, 184, 213, 271, 186, 127, 106, 100, 73, 67, 116, 192, 131, 66, 6, 40, 26, 36, 63, 121, 81, 55, 31, 46, 48, 48, 47, 95, 55, 29, 31, 49, 40, 41, 35, 74, 40, 22, 36, 36, 33, 32, 20, 73, 58, 33, 33, 36, 47, 43, 30, 66, 52, 36, 49, 28, 30, 35, 34, 57, 76, 55, 49, 45, 42, 54, 69, 71, 2, 2, 1, -2, 0, -2, 0, 0, -42, -45, -47, -32, -39, -49, -52, -40, -39, -53, -45, -34, -42, -59, -61, -37, -41, -61, -47, -54, -56, -51, -68, -39, -69, -59, -65, -58, -66, -78, -70, -61, -99, -77, -78, -93, -107, -97, -87, -103, -189, -162, -180, -115, -179, -199, -201, -244, 1, -2, -2, 0, -1, 0, 0, 1, -32, -18, -23, -47, -41, -68, -24, -49, -52, -28, -57, -38, -33, -40, -8, -6, -24, -37, -51, -68, -65, -57, -60, -27, -37, -16, -69, -65, -54, -70, -63, -53, -49, -60, -87, -96, -88, -74, -83, -54, 29, -43, -36, -112, -80, -122, -7, -31, -54, -6, -153, -63, -98, -93, -29, -42, -38, -21, -19, -45, -13, -58, -13, -51, -110, -42, -55, -15, -2, -61, -45, -49, -42, -64, -94, -66, -81, -68, -84, -16, -76, -83, -102, -99, -98, -96, -97, -55, -51, -56, -115, -94, -112, -81, -42, -75, -51, -80, -67, -87, -88, -115, -101, -29, -42, -16, -70, -75, -139, -82, -62, -96, -50, -35, -60, -66, -79, -50, -40, -20, -65, -63, -33, -43, -5, -48, 5, -60, -87, -108, -104, -116, -110, -110, -51, -65, 30, -85, -110, -119, -131, -91, -76, -58, -37, -116, -82, -81, -79, -105, -106, -65, -102, -88, -110, -75, -86, -94, -85, -95, -83, -123, -111, -56, -94, -89, -127, -112, -115, -76, -53, -73, -58, -59, -26, -132, -145, -122, -129, -107, -96, -45, -27, -92, -78, -95, -134, -133, -132, -110, -120, -46, -134, -206, -159, -174, -134, -269, -70, -128, -108, -151, -149, -169, -192, -199, -197, -178, -153, -199, -149, -132, -172, -188, -187, -161, -170, -123, -140, -82, -88, -138, -79, -162, -108, -139, -89, -71, -124, 69, -116, -153, -186, -149, -104, -143, -63, -113, 68, -160, -160, -136, -129, -128, -159, -225, -118, -156, -62, -121, -148, -148, -105, -179, -109, -173, 80, 88, 39, 45, 50, 46, 60, 67, 37, -34, 7, 39, 45, 54, 69, 55, 90, -6, 42, 77, 73, 80, 74, 83, 66, 10, 40, 56, 68, 90, 88, 102, 82, 27, 42, 56, 72, 52, 51, 53, 83, -7, 54, 43, 38, 98, 45, 54, 69, -39, 5, 50, 29, 74, 95, 68, 65, 58, 93, 99, 31, 54, 99, 105},
    {1, 1, 2, 2, -1, -2, 2, 1, -393, -111, -59, -27, -3, -32, -8, -94, -115, -143, -83, -57, -52, -39, -60, -48, -32, -42, -23, -38, -39, -46, -44, -38, -18, -18, 1, -17, 6, -27, -8, -38, -25, -21, -12, -7, -23, -14, -21, -24, -10, -17, -15, -13, -17, -26, -18, -22, -1, -2, 1, 0, 1, -2, 2, 0, -55, -81, -120, -74, -121, -70, -66, -44, -57, -131, -99, -122, -158, -89, -200, -160, -107, -89, -90, -74, -87, -53, -101, -78, -83, -60, -79, -113, -91, -71, -85, -100, -58, -95, -97, -81, -109, -67, -113, -69, -60, -83, -38, -81, -64, -70, -53, -55, -88, -93, -81, -70, -70, -52, -124, -61, -78, -63, -60, -69, -63, -61, -44, -109, -116, -120, -115, -95, -127, -68, -74, -78, -95, -60, -154, -102, -102, -79, -122, -82, -107, -133, -31, -128, -49, -46, -89, -122, -100, -91, -80, -72, -84, -65, -98, -107, -89, -84, -78, -65, -70, -115, -148, -90, -97, -92, -93, -89, -101, -64, -98, -76, -57, -91, -85, -109, -76, -84, -65, -80, -80, -55, -91, -77, -87, -61, -89, -123, -175, -81, -155, 8, 14, -30, -140, -254, -132, -177, -192, -189, -173, -133, -160, -232, -176, -178, -192, -203, -268, -219, -182, -194, -174, -167, -161, -192, -183, -189, -149, -165, -159, -159, -163, -164, -191, -131, -177, -158, -147, -143, -154, -142, -168, -180, -151, -175, -157, -156, -167, -148, -132, -144, -173, -152, -157, -156, -159, -146, -154, -149, -158, -155, -259, -264, -244, -314, -214, -36, -205, -229, -243, -221, -268, -270, -259, -177, -232, -218, -202, -183, -158, -308, -283, -224, -208, -230, -257, -228, -268, -271, -244, -265, -286, -198, -198, -259, -218, -210, -243, -201, -255, -199, -215, -198, -223, -210, -194, -181, -198, -202, -173, -190, -197, -198, -187, -184, -151, -188, -118, -161, -176, -196, -173, -195, -210, -291, 18, -6, -6, -24, 25, 51, 48, 60, 5, 41, 16, 6, 32, 42, 14, 35, -4, 27, 23, 12, 37, 44, 67, 77, 6, 60, 45, 48, 17, 59, 49, 56, 10, 56, 49, 39, 44, 41, 63, 39, -19, 53, 41, 38, 54, 49, 49, 48, 8, 35, 38, 43, 60, 70, 61, 71, 3, 13, 41, 48, 76, 63, 73, 67, 1, -1, -2, 0, 0, -2, 0, 2, 23, 15, 18, 64, 40, 25, 13, 15, 12, 16, 28, 37, 20, 12, 23, 15, 30, 10, 36, 10, 27, 4, 16, 25, 17, 32, 18, 7, -21, 7, 18, 23, 6, -2, 18, 6, 19, -16, 16, 38, 10, -23, 20, 24, 59, 33, 23, 89, -2, -2, 1, 2, 0, -1, 1, 1, -163, 54, 32, 73, 52, 24, 55, 29, 25, 9, 54, 99, 72, 75, 25, 19, 50, 37, 63, 64, 63, 60, 55, 46, 45, -28, 48, -18, 38, 34, 7, 37, 42, 53, 19, 36, -34, 33, 11, 33, 26, -21, -20, 3, -2, -23, -19, -48, -1, -55, 64, -11, -20, -19, -66, -12, -23, -6, 2, -14, -24, -31, -25, -18, -127, 0, 22, 55, 8, 47, 45, 51, 24, 33, 62, 72, 71, 16, 31, -17, 11, 34, 52, 56, 49, 46, 33, 3, 49, -13, 49, -16, 14, -1, 15, 47, -30, 43, 0, -6, -7, 6, 18, 3, 2, 30, -25, -11, 26, -30, -30, -26, 30, 31, 13, 14, -31, -50, 22, -15, 0, 10, -32, -22, -16, -5, -8, 19, 49, 73, 65, 78, 68, 76, 78, 67, 46, 24, 78, 94, 78, 47, 26, 61, 27, 60, 59, 42, 71, 97, 67, 54, 60, 24, 75, -11, 30, 49, 45, 51, 5, 90, 86, 12, 1, 62, 78, 29, 67, 65, 37, -15, -12, -3, -2, 96, 61, 49, 35, 17, 17, 31, -18, 62, -10, 30, 39, 7, -15, 22, 79, -62, 40, 175, 162, 185, 169, -192, -121, 76, 141, 140, 186, 180, 200, 142, 152, 150, 128, 153, 183, 154, 201, 186, 173, 129, 172, 79, 157, 40, 103, 150, 155, 148, 128, 123, 107, 85, 5, 306, 17, 124, 132, -626, -15, 48, 260, -647, 276, 49, 133, 86, 172, 204, 120, -53, -115, 57, 118, 136, 225, 117, 156, 236, 102, 138, -910, -905, 25, 84, 70, 52, 42, 38, -40, -5, 49, 91, 80, 65, 65, 57, 44, 48, 68, 86, 86, 98, 79, 81, 99, 101, 94, 108, 102, 92, 82, 108, 105, 77, 82, 111, 127, 103, 107, 85, 1, 49, 56, 71, 100, 107, 82, 102, -822, 13, 39, 125, 98, 124, 84, -14, -867, -850, -794, -430, 94, 31, -25, -46},
    {0, -1, 0, -1, 0, -1, 0, 1, 71, 44, 25, 19, 47, 41, 154, 119, 51, 44, 29, 35, 39, 47, 35, 27, 33, 38, 25, 25, 28, 38, 40, 30, 28, 29, 29, 29, 24, 31, 33, 22, 26, 29, 29, 27, 25, 28, 39, 21, 25, 28, 22, 30, 29, 43, 30, 21, 1, 1, -1, -2, -2, -2, -2, -1, 22, 51, 29, 43, 47, 23, 69, 38, 47, 39, 66, 41, 76, 86, 49, 60, 41, 62, 61, 69, 80, 71, 61, 43, 58, 37, 53, 47, 45, 48, 45, 58, 50, 51, 50, 42, 53, 57, 54, 55, 49, 53, 57, 72, 67, 64, 59, 50, 48, 51, 56, 64, 63, 64, 59, 47, 43, 54, 51, 71, 51, 68, 50, 61, 53, 69, 50, 50, 56, 26, 57, 60, 72, 62, 63, 70, 86, 69, 71, 63, 55, 67, 67, 46, 83, 80, 82, 53, 60, 61, 55, 62, 69, 68, 62, 65, 69, 52, 65, 64, 59, 60, 64, 75, 55, 71, 71, 77, 69, 68, 75, 57, 69, 68, 73, 70, 75, 71, 70, 67, 68, 86, 58, 76, 69, 62, 72, 67, 80, 93, 116, 119, 120, 108, 93, 91, 96, 91, 87, 114, 93, 91, 83, 103, 85, 86, 90, 87, 80, 73, 75, 90, 81, 85, 81, 85, 84, 87, 85, 91, 84, 71, 85, 78, 83, 77, 85, 84, 76, 82, 76, 87, 85, 84, 87, 77, 68, 74, 84, 91, 89, 85, 73, 71, 76, 75, 80, 92, 88, 91, 78, 77, 256, 260, 251, 235, 257, 250, 253, 267, 240, 235, 245, 246, 256, 260, 243, 239, 227, 240, 253, 229, 242, 252, 238, 244, 224, 226, 229, 223, 238, 217, 233, 233, 228, 222, 228, 221, 229, 240, 216, 243, 239, 229, 235, 230, 249, 239, 242, 242, 222, 229, 239, 245, 244, 248, 246, 249, 229, 236, 234, 238, 242, 231, 236, 226, -15, 2, -3, 5, 21, 19, -5, -16, -8, 11, 44, 45, 44, 53, 28, -4, 20, 39, 34, 43, 39, 52, 55, 29, 26, 34, 30, 31, 31, 33, 33, 28, 27, 35, 30, 26, 32, 32, 36, 26, 12, 35, 37, 34, 36, 42, 38, 26, 7, 24, 32, 40, 46, 45, 41, 36, -13, 9, 24, 34, 40, 36, 33, 33, -2, 2, -1, -2, 0, 0, -1, 1, 0, -19, -9, -12, -8, -27, -24, -7, -7, -18, -17, -18, -16, -11, -24, -9, -8, -17, -18, -20, -15, -18, -9, -13, -9, -22, -15, -26, -19, -16, -19, -14, -16, -16, -5, -10, -12, -12, -1, -28, -35, -30, -40, -25, -21, -24, -27, -47, -2, 1, 0, 2, 1, 2, 0, -2, -58, -64, -58, -73, -76, -59, -57, -67, -58, -79, -66, -77, -78, -83, -66, -73, -70, -79, -78, -88, -81, -78, -78, -72, -81, -82, -79, -67, -89, -83, -61, -74, -78, -74, -91, -68, -73, -76, -77, -86, -101, -84, -56, -78, -69, -54, -77, -76, -73, -96, -64, -41, -59, -39, -53, -81, -68, -55, -48, -30, -58, -23, -52, -67, -60, -105, -82, -92, -78, -78, -105, -103, -98, -96, -86, -96, -88, -102, -95, -85, -96, -105, -97, -87, -91, -92, -98, -87, -111, -87, -83, -89, -79, -95, -75, -102, -88, -95, -99, -80, -95, -75, -93, -92, -80, -105, -35, -54, -55, -30, -88, -66, -93, -94, -95, -38, -66, -57, -75, -103, -70, -81, -47, -41, -64, -33, -73, -94, -129, -131, -132, -133, -135, -137, -138, -135, -129, -131, -131, -132, -132, -144, -143, -131, -132, -140, -142, -138, -139, -134, -135, -140, -138, -137, -143, -125, -136, -149, -137, -142, -136, -142, -147, -129, -139, -152, -140, -141, -138, -139, -106, -124, -95, -87, -141, -122, -130, -134, -142, -95, -113, -107, -124, -131, -177, -189, -95, -42, -62, -51, -159, -198, -192, -204, -188, -211, -220, -205, -249, -300, -198, -237, -226, -225, -216, -221, -220, -215, -224, -215, -245, -240, -241, -234, -234, -220, -227, -236, -243, -257, -266, -263, -230, -235, -238, -241, -246, -269, -268, -83, -251, -232, -229, -193, -228, -256, 40, -273, -156, -239, -233, -246, -197, -245, -217, -241, -266, -241, -249, -266, -219, -257, -187, -80, -290, -269, 43, 48, 24, 40, 40, 41, 32, 29, 1, 50, 43, 47, 48, 39, 38, 33, 3, 40, 44, 40, 38, 40, 39, 26, 21, 41, 40, 44, 47, 37, 35, 23, -1, 29, 34, 36, 38, 51, 38, 40, -10, 30, 22, 15, 43, 13, 32, 33, 3, 32, 23, 10, 6, 2, 13, 16, -2, 3, 7, -3, 0, -21, -36, -21},
    {-1, 1, 2, -1, 2, -2, 2, -1, -187, -98, -123, -124, -144, -162, -175, -160, -77, -43, -79, -42, -54, -53, -93, -97, -44, -33, -36, -39, -24, -37, -47, -59, -30, -26, -17, -9, -17, -18, -33, -43, -32, -22, -15, -24, -18, -24, -4, -44, -42, -26, -27, -29, -26, -4, -8, -46, 2, 2, 0, 1, -1, 0, -1, 2, -124, -121, -150, -57, -150, -166, -122, -110, -109, -93, -126, -120, -88, -47, -116, -119, -111, -106, -102, -135, -100, -163, -128, -113, -113, -145, -134, -158, -132, -122, -136, -98, -136, -165, -146, -153, -146, -135, -122, -121, -123, -124, -152, -134, -126, -154, -116, -129, -137, -144, -160, -127, -137, -105, -134, -116, -91, -141, -129, -126, -139, -127, -167, -59, -138, -124, -162, -145, -133, -168, -151, -122, -121, -137, -93, -140, -132, -131, -124, -135, -131, -95, -149, -145, -166, -131, -106, -123, -115, -134, -134, -116, -108, -129, -127, -108, -94, -159, -133, -111, -127, -123, -154, -111, -140, -96, -123, -130, -139, -126, -105, -139, -123, -115, -123, -114, -128, -87, -115, -139, -104, -76, -143, -115, -124, -123, -75, -99, -266, -218, -204, -252, -233, -259, -249, -183, -202, -201, -225, -215, -215, -209, -222, -219, -230, -208, -228, -195, -183, -200, -187, -233, -246, -224, -223, -225, -219, -229, -220, -211, -236, -233, -230, -233, -201, -217, -216, -227, -222, -224, -222, -219, -220, -201, -219, -213, -225, -224, -227, -206, -195, -213, -203, -228, -206, -205, -202, -186, -181, -181, -192, -200, -403, -400, -363, -438, -358, -397, -394, -343, -416, -423, -421, -420, -399, -394, -380, -382, -441, -407, -415, -465, -426, -369, -362, -390, -401, -436, -433, -428, -407, -416, -416, -386, -452, -428, -442, -457, -432, -415, -440, -418, -432, -437, -423, -426, -425, -441, -409, -400, -436, -384, -417, -387, -386, -370, -357, -372, -411, -437, -430, -435, -403, -386, -366, -369, -3, 1, 18, -10, 14, 31, -19, -67, 15, 8, 19, 2, 26, 35, 36, -2, 2, 7, 22, 32, 22, 33, 38, 40, 10, 22, 23, 27, 24, 28, 35, 27, 15, 24, 22, 28, 31, 26, 27, 31, 11, 25, 28, 34, 33, 34, 42, 38, -6, 30, 29, 38, 36, 59, 55, 41, 38, 32, 40, 56, 50, 58, 65, 53, 2, 2, -2, -1, -2, 0, 2, 1, 63, 43, 35, 52, 51, 19, 33, 55, 36, 41, 34, 39, 33, 44, 24, 33, 38, 42, 21, 36, 17, 26, 45, 47, 49, 26, 30, 12, 22, 27, 34, 52, 48, 52, 41, 43, 36, 9, 15, 52, -12, -5, -8, -12, -12, -25, -49, 8, 0, 1, -1, -1, 0, -2, 2, 1, 95, 88, 96, 80, 130, 122, 110, 112, 65, 71, 109, 93, 96, 57, 69, 72, 65, 81, 125, 107, 104, 107, 89, 64, 59, 84, 116, 98, 82, 92, 26, 89, 69, 62, 104, 88, 103, 71, 68, 22, -19, 35, -32, 57, -39, 6, 2, 25, 25, 18, 86, -2, 23, 81, 12, 43, 44, 58, 39, 47, 2, 19, 56, 47, 106, 119, 96, 147, 109, 91, 97, 164, 56, 73, 112, 65, 98, 36, 79, 54, 67, 86, 112, 123, 111, 103, 81, 91, 81, 80, 114, 92, 48, 68, 39, 75, 63, 58, 96, 40, 76, 78, 67, 58, 67, 50, 0, -27, 58, -47, 69, 35, 90, 42, 55, 24, 25, 78, 37, 81, 49, 82, -5, 22, 36, 18, 24, 86, 170, 165, 189, 163, 177, 162, 153, 170, 165, 127, 163, 187, 165, 150, 108, 148, 157, 170, 143, 100, 132, 179, 136, 125, 134, 101, 164, 160, 114, 136, 51, 152, 170, 174, 166, 88, 67, 185, 139, 139, 171, 141, 125, 60, 73, 127, 89, 152, 171, 178, 179, 108, 101, 140, 105, 142, 111, 127, 63, -12, -19, 7, 98, 125, -853, -920, -971, -1087, -914, -758, -848, -812, -826, -864, -955, -918, -918, -929, -841, -801, -778, -900, -819, -895, -888, -859, -844, -853, -899, -872, -791, -794, -885, -821, -849, -839, -769, -753, -802, -846, -760, -822, -712, -846, -791, -574, -474, -187, -520, -154, -643, -782, -818, -518, -611, -95, -184, -176, -230, -400, -795, -738, -793, -94, -660, -366, -844, -934, -52, -47, 13, 20, 35, 36, 12, 6, -2, 20, 47, 51, 61, 57, 48, 28, 16, 41, 49, 60, 71, 62, 66, 38, 32, 37, 51, 74, 62, 69, 57, 47, 23, 38, 49, 39, 57, 54, 54, 28, 17, 21, 24, 41, 48, 33, 28, 25, -42, 15, 21, 19, 26, 28, 22, -23, -47, -26, -16, 15, 4, 9, -9, -33},
    {-1, 0, -2, 1, -2, 1, 1, 0, 94, 83, 70, 66, 28, 32, -1, -91, 49, 47, 37, 40, 38, 18, 45, 63, 27, 23, 17, 21, 18, 21, 23, 34, 22, 16, 15, 22, 15, 15, 26, 30, 21, 20, 22, 19, 21, 23, 16, 27, 34, 25, 18, 20, 22, 7, 18, 34, 2, -1, 1, -1, -2, -2, 1, 2, 41, 33, 25, 49, 41, 50, 30, 52, 53, 60, 38, 57, 44, 23, 35, 50, 58, 47, 42, 57, 28, 35, 46, 54, 65, 60, 69, 72, 73, 60, 69, 49, 49, 73, 76, 78, 71, 68, 57, 54, 56, 57, 80, 72, 70, 70, 61, 62, 84, 73, 80, 66, 63, 67, 65, 68, 77, 60, 77, 58, 80, 53, 72, 59, 63, 72, 45, 50, 41, 54, 49, 73, 59, 51, 58, 39, 23, 63, 41, 58, 78, 67, 40, 70, 37, 47, 60, 73, 58, 70, 76, 72, 64, 55, 65, 68, 50, 58, 75, 66, 71, 58, 60, 57, 67, 58, 65, 62, 68, 67, 46, 59, 61, 55, 56, 48, 56, 48, 48, 85, 80, 95, 52, 66, 73, 44, 45, 62, 129, 132, 92, 103, 91, 64, 97, 134, 138, 146, 126, 104, 109, 112, 134, 121, 127, 116, 106, 99, 110, 103, 129, 122, 132, 121, 116, 88, 104, 101, 102, 107, 115, 122, 113, 115, 111, 109, 111, 109, 125, 131, 112, 97, 96, 115, 86, 122, 122, 114, 123, 109, 97, 107, 139, 131, 119, 131, 119, 105, 117, 109, 129, 118, 72, 75, 69, 113, 81, 57, 63, 104, 105, 113, 128, 128, 133, 137, 115, 112, 106, 91, 108, 104, 148, 109, 119, 111, 88, 133, 113, 118, 114, 109, 97, 121, 84, 90, 125, 95, 110, 124, 84, 108, 98, 86, 118, 101, 92, 92, 85, 103, 99, 80, 81, 34, 68, 61, 92, 121, 105, 67, 76, 124, 85, 131, 106, 118, 37, 59, 75, 69, 61, 79, 89, 66, 65, 72, 63, 58, 66, 64, 93, 100, 74, 51, 72, 56, 63, 65, 56, 59, 52, 55, 62, 56, 64, 73, 62, 50, 50, 48, 56, 63, 57, 63, 60, 51, 50, 49, 50, 56, 48, 50, 52, 48, 51, 34, 38, 44, 39, 40, 45, 41, 47, 52, 42, 31, 25, 32, 27, 33, 1, 1, -2, 0, -1, 0, 1, -1, -27, -20, -23, -14, -23, -13, -11, -35, -24, -14, -16, -18, -16, -23, -10, -28, -18, -27, -9, -14, -11, -18, -39, -31, -29, -22, -24, -20, -19, -28, -30, -44, -62, -75, -71, -41, -47, -49, -93, -68, -93, -88, -75, -93, -112, -117, -116, -99, -2, 1, 2, 0, 0, 1, 0, -1, -108, -108, -128, -84, -98, -78, -129, -50, -109, -94, -103, -88, -84, -93, -108, -93, -94, -88, -101, -90, -96, -102, -94, -100, -101, -129, -105, -125, -95, -106, -120, -95, -89, -97, -96, -96, -100, -95, -84, -75, -109, -111, -99, -80, -70, -106, -97, -70, -85, -81, -123, -133, -146, -112, -65, -90, -46, -75, -73, -49, -74, -52, -77, -78, -122, -170, -97, -101, -127, -96, -83, -19, -87, -88, -102, -88, -98, -77, -85, -117, -109, -100, -104, -103, -105, -98, -97, -113, -83, -133, -101, -116, -102, -97, -139, -82, -105, -91, -116, -99, -90, -113, -98, -102, -115, -122, -110, -99, -114, -131, -97, -108, -89, -86, -133, -99, -124, -110, -103, -105, -68, -99, -109, -77, -110, -62, -122, -98, -149, -166, -159, -146, -144, -141, -145, -138, -163, -136, -165, -149, -140, -144, -148, -155, -171, -154, -161, -154, -136, -163, -144, -147, -174, -166, -185, -194, -156, -168, -161, -148, -196, -157, -164, -164, -142, -148, -148, -156, -156, -174, -185, -163, -203, -229, -174, -156, -156, -167, -158, -236, -213, -220, -185, -167, -138, -117, -195, -224, -208, -225, -147, -136, -358, -262, -337, -296, -287, -154, -225, -76, -331, -276, -284, -273, -273, -259, -262, -256, -321, -278, -321, -306, -303, -282, -271, -292, -287, -318, -320, -286, -301, -313, -301, -296, -355, -319, -334, -332, -299, -3, -303, -293, -314, -388, -327, -363, -194, -355, 54, -279, -296, -287, -314, -479, -371, -329, -284, -283, -276, -285, -322, -361, -415, 23, -207, -243, 97, 52, 48, 53, 53, 57, 64, 70, 70, 28, 29, 42, 38, 43, 50, 62, 67, 31, 20, 39, 30, 34, 26, 67, 57, 20, 33, 20, 14, 13, 18, 42, 57, 35, 26, 9, 16, 11, 13, 34, 59, 17, 16, 20, 13, 13, 20, 38, 87, 24, 16, -1, 25, 11, -7, 32, 113, 59, 39, 44, 60, 70, 75, 89},
    {2, 2, 2, -1, 2, 2, -2, -1, 72, 80, 57, 71, 93, 75, 72, 88, 56, 57, 35, 32, 37, 36, 46, 52, 28, 24, 16, 23, 22, 23, 25, 27, 22, 19, 16, 20, 15, 19, 25, 23, 19, 21, 23, 20, 16, 18, 20, 21, 23, 24, 17, 16, 20, 9, 21, 23, -1, 2, -2, 2, -1, -1, 1, 0, 37, 55, 39, 68, 69, 57, 59, 65, 55, 71, 65, 77, 68, 72, 47, 65, 75, 77, 77, 84, 74, 64, 78, 58, 70, 73, 70, 69, 76, 62, 72, 59, 58, 83, 75, 77, 75, 76, 70, 62, 67, 68, 77, 71, 75, 71, 65, 61, 80, 76, 69, 68, 62, 67, 71, 63, 61, 63, 76, 70, 70, 65, 66, 55, 74, 79, 58, 75, 99, 68, 81, 79, 74, 75, 73, 56, 74, 84, 74, 93, 85, 89, 77, 90, 73, 74, 83, 79, 78, 80, 83, 80, 85, 81, 76, 89, 71, 79, 81, 75, 84, 73, 97, 74, 77, 81, 80, 82, 77, 84, 69, 79, 76, 75, 73, 66, 76, 70, 69, 83, 66, 77, 60, 77, 85, 64, 74, 76, 125, 156, 138, 164, 138, 118, 116, 170, 123, 127, 114, 146, 117, 127, 127, 132, 114, 116, 112, 127, 131, 122, 139, 112, 124, 113, 112, 108, 125, 112, 112, 115, 118, 118, 114, 123, 113, 120, 110, 113, 115, 123, 114, 112, 105, 101, 99, 114, 112, 114, 111, 113, 107, 117, 122, 119, 115, 119, 117, 115, 124, 119, 116, 118, 200, 212, 218, 223, 223, 218, 194, 254, 232, 256, 228, 252, 249, 245, 250, 257, 243, 235, 245, 237, 267, 243, 251, 247, 225, 264, 243, 250, 246, 240, 236, 258, 228, 231, 248, 220, 248, 241, 221, 231, 226, 230, 247, 232, 235, 225, 219, 241, 240, 223, 232, 193, 221, 206, 238, 241, 228, 207, 224, 281, 235, 255, 245, 262, -14, -9, -8, -7, -6, -10, -33, -53, -5, -6, -7, -4, 1, -1, -1, -7, -16, -10, -18, -11, -18, -7, -7, -7, -47, -13, -19, -19, -9, -16, -17, -14, -42, -15, -25, -18, -21, -18, -18, -14, -47, -21, -18, -15, -22, -27, -26, -38, -40, -16, -24, -18, -29, -34, -34, -28, -33, -28, -23, -26, -34, -28, -32, -28, 2, 2, -2, -1, 0, 2, 2, 0, -25, -20, -19, -21, -22, -22, -21, -31, -20, -19, -20, -20, -18, -20, -21, -29, -20, -28, -16, -19, -16, -26, -28, -26, -25, -20, -25, -27, -27, -30, -31, -33, -55, -50, -41, -36, -35, -42, -48, -55, -56, -55, -51, -67, -60, -94, -86, -95, 0, 0, -1, 0, -1, 1, 0, 0, -86, -84, -89, -79, -78, -65, -87, -58, -80, -86, -81, -74, -74, -79, -88, -72, -72, -70, -78, -86, -80, -80, -73, -76, -78, -85, -87, -84, -84, -82, -86, -75, -78, -72, -88, -80, -80, -64, -70, -68, -73, -96, -66, -100, -41, -92, -48, -44, -62, -61, -119, -71, -99, -68, -41, -55, -31, -46, -42, -13, -32, -18, -45, -61, -119, -132, -77, -87, -78, -82, -99, -50, -90, -80, -100, -80, -87, -82, -84, -86, -85, -78, -87, -90, -88, -91, -82, -94, -75, -94, -86, -98, -91, -83, -86, -81, -90, -83, -104, -94, -83, -74, -82, -74, -90, -103, -81, -81, -96, -68, -77, -79, -80, -76, -95, -64, -101, -73, -75, -95, -72, -81, -75, -29, -66, -25, -56, -89, -117, -130, -123, -117, -117, -115, -108, -106, -129, -118, -134, -128, -117, -119, -127, -118, -131, -136, -137, -118, -112, -132, -118, -127, -133, -136, -142, -129, -122, -127, -115, -121, -152, -142, -135, -122, -119, -121, -107, -125, -141, -149, -142, -134, -113, -146, -117, -126, -133, -132, -136, -162, -148, -144, -134, -135, -138, -125, -150, -116, -130, -133, -119, -128, -296, -225, -274, -246, -245, -153, -210, -172, -278, -231, -246, -234, -233, -234, -221, -233, -249, -224, -245, -246, -248, -238, -223, -239, -241, -253, -258, -238, -245, -249, -215, -249, -297, -248, -260, -259, -241, 108, -246, -223, -265, -330, -254, -290, 94, -281, 114, -220, -254, -248, -314, -365, -334, -260, -240, -243, -279, -261, -305, -296, -295, 135, -209, -235, -20, -34, -29, -22, -21, -18, -16, -11, -36, -48, -43, -24, -28, -26, -18, -15, -22, -36, -36, -28, -26, -18, -25, -12, -31, -39, -37, -29, -29, -28, -24, -12, -26, -36, -41, -33, -35, -36, -31, -24, -26, -40, -41, -57, -57, -49, -40, -32, -32, -45, -39, -44, -52, -48, -44, -48, -26, -41, -40, -32, -48, -38, -43, -40},
    {-1, 1, -1, 1, -2, -1, 2, -1, 89, 87, 49, 56, 29, 12, -30, -11, 28, 42, 6, -17, -22, -27, -25, 2, -21, -41, -39, -35, -47, -50, -51, -34, -15, -51, -42, -75, -54, -58, -43, -23, -25, -43, -57, -31, -42, -29, -54, -13, -24, -61, -40, -42, -8, 10, -17, 16, 0, 1, 0, 0, -2, -1, -1, 0, -5, -23, -46, -28, -36, -31, -24, -48, 12, -44, -110, -100, -107, -195, -40, -38, -49, -28, -157, -66, -186, -41, -8, -62, -39, -62, -45, -66, -24, -29, -15, -38, -50, -8, -26, 6, 12, -6, 17, -6, 12, -28, -8, -34, -10, -50, 3, 18, -49, -32, -35, 1, -37, -16, 44, 29, 3, -4, -42, -9, -8, -24, 13, 10, 56, 9, 31, 14, 6, -35, -102, -46, 8, -31, -14, -51, -159, -58, -107, -23, -9, 14, -40, -121, -84, -182, -41, -59, -50, -43, -44, -22, -74, -63, -70, 25, -31, -87, -50, -70, -43, -45, 40, -54, -64, -51, -83, -56, -50, -13, -55, 0, -64, -77, -66, -57, -27, -5, -11, -25, -26, 9, -37, -9, 13, -22, -34, 34, -156, -243, -344, -666, -319, -324, -74, -44, -79, -67, -90, -104, -37, -57, 41, -23, -77, -69, -96, -87, -60, 12, -55, -53, -50, -80, -77, -107, -43, -33, -71, -68, -55, -63, -79, -43, -40, -23, -57, -38, -24, -43, -52, -41, -18, -21, -29, 4, -18, -56, -61, -71, -59, -33, 31, 36, -40, -39, -41, -39, -1, 13, 40, 9, -263, -265, -344, -574, -305, -264, -137, -103, -108, -101, -141, -122, -95, -130, -134, -109, -115, -120, -107, -152, -99, -110, -65, -28, -160, -131, -166, -119, -100, -109, -110, 52, -116, -159, -88, -115, -100, -45, -84, 1, -141, -118, -113, -84, -33, 42, -27, -9, -126, -172, -122, -133, -36, 0, -21, -6, -97, -113, -55, -112, -7, 120, 7, 63, -152, -801, -131, -158, -122, -66, -57, -55, -155, -774, -164, -232, -91, -80, -77, -43, -80, -149, -85, -63, -60, -36, 16, -19, -21, -70, -72, -8, -5, 10, 46, 22, -33, -35, -3, 12, 42, 83, 84, 49, -61, -33, -6, 55, 95, 138, 115, 62, -63, -34, -5, 49, 118, 156, 118, 60, -42, -22, 32, 35, 85, 65, 48, -1, 2, -1, 1, -2, -1, 2, 0, 2, 8, 61, 42, 4, 32, 65, 73, 15, 16, 46, 52, 19, 42, 25, 58, -2, -3, 39, 44, 43, 64, 35, 20, -8, 22, 32, 25, 56, 11, -16, -25, -25, 55, 38, 9, -39, -98, -173, -251, -114, -20, -67, -82, -98, -320, -216, -185, -206, 1, 0, -1, -2, 1, -1, 0, 0, 72, -7, 107, 19, 33, -5, 10, 36, 23, 58, 32, -22, 0, 9, 63, -4, -3, 45, 15, 17, -6, 19, 9, 16, 20, -14, 28, -37, 7, -3, -8, 18, 74, 52, -27, -29, -101, -60, -52, -14, 162, 40, -16, -118, -145, -292, -404, 13, 34, 87, 55, 66, 89, -124, 23, 9, -27, 1, -27, -125, -124, -140, -29, -28, 57, 89, 41, 96, 112, 38, 32, -10, 94, 51, 54, 29, 26, 55, 58, 78, 16, 29, 14, 28, 12, 23, 19, 28, 53, -14, -2, -33, -23, 3, 18, 16, 40, 49, 3, -15, -82, -124, -30, -14, 81, 9, -22, -58, -167, -266, -305, -138, 43, 20, 45, -33, -89, -127, -76, -63, -18, -42, 9, -91, -60, -124, -154, -3, 104, 54, 76, 94, 47, 60, 38, 59, 475, 84, 91, 30, 39, -1, 9, 19, 323, 70, 77, 52, 9, 12, -5, 21, 41, 34, 54, -12, 33, -14, -43, 13, 6, 20, 3, 35, -77, -112, -55, 12, -43, -13, -6, -105, -322, -329, -286, -159, -75, -71, -75, -132, -258, -232, -200, -5, -58, -49, -130, -372, -348, -311, -136, -244, 659, 91, 465, 114, 309, 127, 169, -8, 638, 122, 151, 110, 93, 96, 115, 94, 272, 84, 30, 127, 31, 53, 63, 55, 87, 25, 57, 19, 61, 30, -33, -4, 25, 150, 21, 49, -118, -185, -157, -20, 13, -77, -4, -177, -413, -438, -443, -153, 82, 25, -14, -299, -513, -443, -152, -74, 6, 46, -16, -399, -262, -320, -260, 133, 91, 94, 36, 30, 40, 39, 66, 75, 58, -17, -10, -2, 2, 2, 10, 20, 66, 4, 12, -9, 3, 28, 11, 22, 48, -2, -1, -1, 11, 22, 15, 6, 68, -24, -7, -4, 5, 14, 7, -16, 49, 1, 16, 30, 25, 16, -28, -42, 64, 0, 7, 28, 64, 27, -6, -64, 79, 79, 58, 25, -15, -53, -38, -116},
    {0, 0, -2, -1, -2, -1, -1, 2, -56, -199, -73, 149, 76, 59, -517, -388, -108, -26, -14, 23, 32, 96, -162, -130, -36, -46, -2, -34, -77, -28, -74, -37, -19, 9, -44, -34, -54, -37, 9, -2, -12, -47, -27, -25, -34, -21, -64, -3, 15, -33, -12, -14, -7, -50, -47, 28, 1, -1, -1, 0, 1, 2, 2, -1, -132, -159, -151, -24, -92, 24, -184, -181, -140, -340, -213, 26, 165, -259, 16, -94, -27, -228, -355, -104, -381, 25, -54, -38, -45, 73, -12, 137, -11, 36, 5, -52, -4, -33, 22, 26, 5, 8, 11, 5, -28, -53, -37, -36, -43, -3, -37, -12, -44, -84, -62, -54, -24, -51, -35, -21, -86, -20, -60, -65, -47, -30, 0, -24, -52, -88, -91, -18, -11, -39, -19, -130, -54, -134, -328, -39, -172, -26, -241, -79, -21, -143, -36, 27, 28, -86, -119, -13, -71, 20, 15, -49, -49, 19, 1, -179, -59, 38, -7, -64, -29, -20, 11, -56, -12, -50, -74, -47, -53, -74, -54, -16, -54, -53, -72, -82, -54, -82, -34, -9, -56, -130, -38, -91, -90, -12, -68, -47, -28, -112, -110, -14, -132, -173, -109, -71, -160, -98, -102, -182, -94, -68, -49, -90, -88, -77, -64, -2, -28, 49, 3, -58, -22, -24, -62, -46, -28, -38, -39, -41, -41, -33, -22, -29, -11, -37, -9, -78, -61, -84, -45, -72, -51, -34, -70, -48, -64, -74, -99, -101, -80, -80, -69, -50, -63, -79, -64, -104, -102, -88, -61, -75, -4, -50, -130, -153, -254, -263, -254, -224, -191, -175, -213, -87, -148, -39, -205, -239, -166, -175, -68, -42, -114, -76, -202, -168, -69, -72, -52, -125, -103, -126, -96, -199, -110, -83, -81, -154, -111, -142, -82, -139, -87, -124, -138, -130, -154, -173, -153, -116, -162, -189, -163, -174, -164, -181, -181, -164, -177, -159, -145, -162, -152, -156, -182, -140, 91, 139, -15, -201, -175, -70, 83, 219, 82, -30, -138, -253, -205, -142, -66, 151, -6, -51, -111, -141, -173, -120, -94, -20, -49, -33, -54, -49, -61, -23, -60, -42, -4, -12, -17, -6, -37, -13, -25, -11, 5, 22, 41, 2, -16, -10, -29, -31, 38, 17, 32, 0, 21, -9, -3, -36, 31, 19, -2, -29, -15, -23, -22, -18, -1, -1, -1, -2, 0, 1, 2, 2, 9, 47, 43, 115, 86, 133, 57, -3, 22, 60, 58, 58, 51, 35, 75, 13, 25, 40, 50, 58, 30, 45, 13, 27, 21, 46, 5, -31, 13, 6, 72, 31, -78, -133, -59, -102, -69, -16, -33, -1, -111, -233, -214, -272, -157, -123, -84, -81, -1, -2, 2, 1, 0, 2, -2, 0, 121, 66, 34, 87, 70, 110, 69, -27, 20, 66, 46, 124, 102, 143, -47, 56, 31, 35, 22, 80, 50, 41, 40, 32, 33, -43, -23, -29, -86, -28, -83, 26, -95, -49, -91, -82, -107, -87, -55, -35, -63, -261, -153, -275, -255, -131, -38, -92, -255, -97, -56, -117, -86, -115, -51, -255, -65, -87, -71, -87, -100, -68, -1, -44, 77, -117, 71, 88, 100, 83, 43, -161, -6, 45, 46, 138, 85, 109, 7, -31, -39, -6, 30, 37, 31, -5, 26, -20, 4, -35, -36, 24, -58, -12, -81, 52, -144, -76, -58, -134, -56, 31, -54, -55, -220, -255, -101, -64, -80, -40, -30, -203, -139, -39, -92, -125, -163, -119, -79, -81, -71, -48, -50, -79, -47, -61, 47, -15, 39, 21, 27, 46, 25, 56, -13, 23, 1, -24, -32, 17, 10, 40, -152, -50, 13, -42, 28, 28, 7, -13, 7, -23, 24, -80, -10, -32, -119, 1, -197, -7, -52, -72, -82, -77, -137, 26, -59, -88, -337, -317, -228, -231, -176, -108, -227, -331, -22, -293, -101, -157, -150, -78, -132, -216, -249, -241, -168, -43, -70, -140, -118, -196, -321, -139, -186, 33, -141, 27, -39, -117, -234, -176, -544, -139, -486, -98, -348, -301, -360, -534, -247, -177, -458, -461, -318, -250, -416, -438, -405, -321, -360, -429, -364, -432, -260, -301, -294, -373, -232, -397, -40, -413, -456, -451, -492, -425, -360, -387, -481, -499, -436, -435, -402, -390, -520, -509, -429, -386, 360, -104, -98, -194, 119, -450, -134, -482, -174, -153, -83, -20, 29, -18, -32, -19, -169, -24, -26, 5, 18, 13, 2, -23, -87, 8, -2, -10, -2, -4, 30, 31, -91, -12, -62, -8, -5, 25, 55, 60, -481, -26, -15, 5, 10, -1, 45, 74, -539, -551, -20, -49, -2, 31, 61, 116, -488, -316, -157, -234, -168, -55, 52, 81, -216, -468, -463, -468, -461, -86, -30, -9}
};

// Hidden Layer Biases: Shape [16]
const int16_t HIDDEN_BIASES[16] = {
    165, 285, 20, 157, 154, 43, 10, 60, 106, 105, 55, 86, 90, -64, 49, -33
};

// Output Layer Weights: Shape [16] (Flattened out_features x in_features)
const int16_t OUTPUT_WEIGHTS[16] = {
    9, -5, -3, -5, -8, 5, -2, -8, 6, -3, 15, -6, 12, -21, -3, -3
};

// Output Layer Biases: Shape [1]
const int32_t OUTPUT_BIAS = 124;

#endif // CHESS_NET_HPP
