#ifndef CHESS_NET_HPP
#define CHESS_NET_HPP

#include <cstdint>

// Quantization Parameters
const int SCALE_FACTOR = 64;
const int SCALE_FACTOR_SQ = 4096;

// Hidden Layer Weights: Shape [16][768] (out_features x in_features)
const int16_t HIDDEN_WEIGHTS[16][768] = {
    {0, -2, 2, 2, -2, -2, 1, 2, -91, -60, -61, -47, -63, -69, -97, -84, -28, -17, -24, -13, -14, -16, -45, -56, -20, -15, -10, -10, -13, -14, -26, -32, -17, -7, -8, -3, -9, -3, -12, -22, -13, -8, -11, -15, -8, -9, -1, -21, -20, -16, -16, -17, -18, -2, -4, -20, -1, -2, 2, 0, -1, -2, 2, 0, -58, -72, -81, -32, -64, -83, -67, -73, -62, -62, -64, -76, -41, -37, -42, -55, -83, -72, -44, -57, -27, -33, -64, -56, -66, -61, -55, -60, -60, -38, -71, -48, -70, -81, -73, -84, -72, -75, -62, -65, -72, -66, -86, -72, -78, -68, -70, -61, -80, -89, -87, -73, -72, -64, -84, -67, -53, -74, -79, -70, -71, -57, -85, -50, -69, -67, -86, -71, -74, -79, -70, -75, -69, -79, -57, -56, -66, -70, -68, -81, -83, -63, -58, -73, -34, -57, -48, -67, -71, -61, -66, -59, -60, -47, -57, -62, -56, -72, -71, -55, -61, -62, -83, -60, -75, -59, -73, -73, -75, -74, -61, -76, -71, -66, -70, -73, -76, -51, -63, -91, -68, -77, -75, -78, -79, -68, -47, -57, -158, -120, -111, -127, -137, -125, -129, -108, -119, -123, -134, -132, -125, -116, -140, -136, -134, -118, -129, -108, -113, -106, -104, -128, -139, -126, -126, -119, -120, -128, -105, -122, -141, -137, -133, -140, -116, -129, -105, -131, -142, -130, -132, -128, -128, -123, -129, -131, -134, -129, -132, -123, -113, -124, -134, -137, -131, -127, -127, -120, -120, -115, -122, -121, -201, -223, -201, -253, -198, -220, -218, -202, -236, -244, -245, -236, -230, -227, -219, -215, -242, -229, -229, -258, -236, -214, -208, -224, -223, -242, -236, -241, -229, -220, -221, -217, -250, -242, -249, -254, -244, -225, -234, -234, -241, -240, -242, -243, -241, -237, -213, -224, -238, -217, -243, -219, -226, -213, -197, -207, -232, -242, -249, -247, -239, -229, -211, -226, 30, 16, 11, 9, 18, 17, -19, -35, 24, 22, 27, 15, 21, 23, 17, -13, 8, 23, 19, 31, 20, 16, 21, 25, 4, 25, 23, 17, 11, 14, 23, 19, 9, 21, 15, 15, 12, 12, 16, 18, 11, 20, 16, 16, 13, 17, 21, 20, 7, 16, 12, 15, 14, 28, 33, 30, 32, 19, 22, 26, 26, 33, 42, 40, 2, 0, 0, 2, -1, -2, 1, 0, 31, 25, 18, 29, 28, 14, 21, 28, 21, 22, 17, 19, 17, 23, 15, 20, 18, 21, 11, 19, 12, 15, 19, 23, 24, 17, 15, 12, 19, 13, 22, 27, 30, 38, 34, 26, 24, 7, 24, 33, 13, 19, 4, 24, 27, 8, -20, 14, -2, -1, -2, -2, 1, 0, 2, -2, 60, 55, 64, 48, 73, 65, 65, 50, 54, 53, 66, 55, 58, 44, 56, 44, 30, 44, 62, 59, 59, 56, 47, 37, 30, 52, 61, 58, 59, 48, 32, 43, 35, 32, 55, 68, 68, 48, 37, 18, 4, 35, 9, 38, 1, 17, 33, 28, 32, 27, 37, 12, 2, 49, 4, 27, 15, 26, 21, 21, 12, 3, 19, 19, 70, 74, 54, 88, 79, 48, 60, 71, 42, 41, 63, 42, 54, 35, 38, 28, 32, 48, 58, 66, 58, 56, 39, 48, 42, 47, 61, 54, 45, 42, 39, 45, 48, 40, 57, 48, 39, 44, 44, 44, 51, 44, 28, 13, 32, 7, 52, 26, 55, 31, 41, 11, 27, 51, 36, 53, 39, 58, 12, 21, 26, 16, 18, 41, 92, 97, 102, 84, 95, 86, 84, 91, 87, 67, 93, 99, 87, 81, 68, 87, 75, 93, 77, 62, 72, 97, 73, 70, 71, 64, 85, 90, 77, 79, 55, 79, 95, 88, 86, 73, 46, 97, 73, 67, 93, 87, 91, 70, 76, 83, 70, 82, 97, 103, 98, 96, 79, 99, 85, 90, 75, 90, 82, 49, 38, 43, 66, 80, -461, -530, -561, -615, -505, -473, -497, -506, -449, -494, -542, -524, -523, -534, -477, -460, -453, -515, -460, -494, -478, -476, -464, -489, -510, -436, -443, -208, -512, -465, -457, -452, -379, -421, -383, -470, -134, -203, -311, -446, -439, -280, -137, -92, -102, -46, -123, -404, -281, -197, -289, -45, 22, -90, -133, -186, -181, -14, -35, -15, 72, -11, -153, -434, -21, -24, 8, 11, 18, 19, 11, 5, 0, 14, 27, 33, 39, 36, 32, 12, 14, 30, 39, 42, 46, 39, 43, 20, 26, 35, 37, 46, 46, 47, 43, 35, 25, 32, 34, 37, 36, 38, 42, 28, 11, 15, 9, 22, 34, 21, 31, 31, -15, 2, 1, 15, 13, 16, 30, 5, -21, -11, -10, 2, 3, 6, -6, -6},
    {1, -2, 2, -2, 0, 2, -2, 1, 80, 58, 41, 40, -21, 34, -26, -468, 9, 4, 3, -3, 6, -3, 5, 30, 14, 14, 0, -7, 13, 5, 13, 18, 12, 26, 0, 28, 2, 23, 15, 23, 9, 19, 16, 22, 13, 6, 14, 4, 7, 10, 15, 35, 25, 19, -3, 5, 0, 1, -2, -2, 0, -2, 1, 1, -19, 14, -13, 28, 17, 16, 4, 28, -10, 26, -64, -5, -61, 57, -8, 22, 6, -52, 3, -11, 46, -9, 53, 8, 11, -9, 17, -3, 16, 28, 10, 14, 14, -13, 28, 24, 38, 23, 32, 11, 24, 27, 0, 48, 21, 59, 21, 43, 18, 24, 35, 39, 42, 40, 12, 11, -25, 38, 3, 45, 44, 1, 49, -4, -14, 2, -19, 10, -18, 21, 11, 22, 1, -39, 19, -13, 16, 5, 22, -2, -11, 14, -43, -15, 0, 60, 2, 21, -1, -11, 10, -22, 15, -14, 17, -3, -9, 16, -4, 38, -2, 16, -50, 29, 8, -5, 32, 11, 23, -15, 20, -1, -2, 21, 19, 39, 21, 20, -10, 19, -23, -38, 27, -6, 40, 34, 18, -38, -7, 17, 21, 9, 9, -27, 43, 51, 35, 29, 26, 43, 25, 39, 32, 22, 19, 25, 17, 21, 25, 14, 45, 36, 28, 33, 32, 51, 21, 38, 41, 28, 31, 22, 25, 30, 31, 23, 51, 28, 29, 27, 31, 30, 22, 46, 29, 36, 43, 24, 39, 35, 41, 27, 46, 48, 36, 45, 31, 37, 34, 30, 44, 33, 36, 42, 91, 86, 63, 67, 54, 91, 57, 43, 71, 70, 108, 100, 98, 58, 50, 78, 17, 96, 34, 100, 62, 108, 62, 73, 83, 72, 92, 57, 110, 71, 74, 79, 67, 105, 67, 81, 92, 89, 66, 71, 96, 76, 71, 63, 78, 93, 68, 76, 69, 97, 72, 79, 45, 82, 46, 103, 92, 102, 80, 79, 112, 92, 92, -377, 93, 102, 77, 58, 101, 181, 66, -72, 17, 59, 40, 26, 46, 94, 67, 21, 20, 31, 36, 37, 23, 48, 51, 37, 44, 59, 54, 41, 32, 40, 46, 30, 34, 52, 37, 36, 28, 47, 46, 20, 35, 36, 29, 35, 21, 33, 26, 11, 24, 27, 8, 18, 10, 16, 31, 28, 18, 36, 21, 16, 21, 23, 1, 0, 1, -1, -2, -2, 1, 1, -17, -18, -14, -17, -25, -16, -21, -22, -24, -24, -9, -21, -14, -29, -27, -32, -27, -16, -19, -24, -5, -18, -2, -31, -22, -27, -21, -22, -43, -37, -41, -23, -66, -84, -53, -45, -74, -67, -90, -53, -227, -164, -132, -96, -148, -174, -147, -244, 1, -1, 0, 1, -1, 1, 2, -1, -153, -33, -81, -30, -38, -25, -25, -23, -61, -38, -60, -52, -49, -43, 7, -27, -41, -35, -45, -45, -57, -30, -48, -23, -20, -68, -25, -94, 5, -42, 24, -17, -25, -14, -64, -27, -98, -49, -50, 3, 19, -6, -57, -15, -45, -89, -41, 28, -27, 14, 15, 33, 38, -29, -4, -8, -42, -37, -32, -35, 5, -36, -38, -25, -141, -53, -39, -5, 42, -38, -27, -45, -8, -34, -76, -50, -58, -26, -36, 17, -32, -47, -57, -56, -44, -49, -43, -35, -12, -77, -44, -98, -40, -47, -16, -31, 1, -34, -26, -29, -84, -82, -48, -13, 5, 21, -84, 28, -95, -141, -42, -8, -21, -13, 16, -24, 9, 17, 30, 17, -86, -59, -19, -26, 34, -31, 43, -56, -115, -118, -108, -75, -86, -69, -63, -53, -136, -105, -106, -94, -81, -77, -50, -55, -141, -91, -104, -75, -77, -82, -80, -57, -91, -156, -70, -160, -26, -84, -40, -75, -70, -93, -118, -40, -121, -102, -96, -40, -82, -59, -56, -27, -39, -146, -64, -110, -101, -103, -100, -66, -67, -54, -29, -88, -41, -33, -79, -175, -82, -206, -76, -94, -267, -239, -136, -91, -89, -18, -75, 297, -205, -142, -128, -128, -127, -109, -118, -89, -234, -133, -184, -126, -160, -134, -136, -93, -92, -196, -118, -181, -51, -160, -7, -107, -99, -85, -110, -91, -177, -51, -228, -86, -109, -157, -113, -148, -65, -217, -128, -128, -161, -115, -129, -137, -146, -86, -81, -70, -79, -135, -142, -116, -76, -161, -79, -150, 14, 19, 24, 32, 46, 42, 57, 70, 17, -17, 11, 25, 38, 45, 63, 56, 17, 7, 29, 24, 38, 37, 51, 45, 1, 3, 16, 20, 30, 34, 58, 43, 17, 16, 25, 32, 30, 33, 41, 34, 21, -6, 31, 27, 22, 58, 18, 24, 17, 5, 22, 33, 27, 43, 42, 25, 16, 22, 46, 24, 16, 27, 54, 25},
    {0, 2, -1, 1, -1, -2, -1, 1, -35, -50, -67, -95, -67, -29, -41, -43, -37, -23, -41, -25, -32, -38, -41, -39, -20, -26, -19, -37, -27, -23, -29, -23, -15, -24, -15, 4, -17, 3, -22, -10, -16, -24, -6, -25, -5, -17, -20, -17, -12, -28, -12, -33, -10, -23, -21, -13, 2, -1, 0, -1, -2, -1, -2, 1, -38, -53, -70, -70, -73, -52, -77, -50, -42, -65, -58, -93, -124, -56, -88, -55, -65, -54, -31, -64, -48, -115, -57, -66, -45, -28, -71, -64, -70, -48, -43, -44, -43, -54, -33, -49, -46, -51, -45, -45, -33, -35, -32, -34, -37, 8, -40, -25, -38, -48, -35, -46, -29, -38, -55, -39, -42, -32, -42, -47, -49, -37, -35, -39, -53, -57, -59, -71, -75, -59, -57, -54, -46, -51, -54, -85, -66, -75, -52, -53, -61, -53, -70, -44, -56, -46, -67, -44, -48, -58, -46, -61, -44, -61, -43, -56, -48, -54, -42, -41, -48, -25, -66, -52, -46, -46, -18, -51, -24, -45, -45, -56, -42, -40, -51, -61, -46, -44, -42, -61, -42, -19, -40, -65, -55, -34, -30, -40, -79, -102, -96, -99, -67, -77, -66, -108, -75, -75, -78, -90, -97, -98, -85, -76, -58, -83, -72, -71, -90, -74, -96, -55, -72, -64, -54, -46, -83, -62, -75, -57, -56, -70, -61, -75, -36, -69, -60, -60, -67, -70, -65, -61, -67, -79, -65, -64, -65, -76, -61, -65, -67, -60, -69, -68, -56, -59, -59, -37, -54, -52, -58, -61, -167, -172, -181, -187, -160, -145, -186, -173, -153, -155, -139, -159, -147, -163, -144, -154, -162, -159, -153, -164, -156, -121, -150, -149, -144, -163, -146, -132, -146, -142, -149, -140, -160, -161, -154, -147, -133, -138, -147, -152, -150, -158, -140, -145, -114, -156, -145, -159, -154, -154, -163, -155, -145, -145, -142, -152, -126, -144, -153, -142, -140, -152, -155, -148, 37, 0, 17, 16, 2, 25, 5, -9, 38, -3, -5, -5, 1, 8, 9, -3, 34, 7, 9, 12, 10, 12, 6, 10, 56, -1, 2, 13, 14, 9, -1, 11, 45, -9, 6, 10, 19, 9, 1, 23, 59, 7, 9, 4, 17, 3, 10, 29, 57, 24, 23, 6, 25, 14, 11, 11, 35, 41, 10, 18, 21, 11, 6, -4, -1, 2, 0, 0, 2, -1, -2, 1, 18, 22, 16, 25, 21, 30, 26, 19, 18, 23, 20, 19, 20, 19, 30, 19, 20, 20, 20, 28, 7, 21, 17, 22, 21, 19, 13, 28, 23, 20, 32, 19, 31, 29, 20, 21, 29, 21, 20, 28, 29, -5, 1, -39, -30, -17, 4, 30, 0, 0, -2, -1, 1, 1, 0, 2, 45, 29, 39, 41, 39, 23, 26, 46, 22, 47, 39, 47, 42, 41, 42, 34, 32, 39, 40, 48, 46, 39, 40, 31, 31, 32, 27, 34, -87, 39, -46, 40, 40, 26, 51, -59, 27, 10, 30, 21, 38, 18, 29, 7, 22, -17, 17, 3, 15, 11, 49, -47, -36, -19, 16, -1, 20, 34, 23, 14, -7, 25, 37, 20, 47, 51, 30, 40, 28, 40, 56, 60, 42, 43, 52, 49, 52, 51, 47, 29, 31, 51, 51, 47, 49, 52, 53, 34, 43, 28, 35, 48, -53, 41, -43, 46, 30, 35, 39, -73, 47, 30, 37, 17, 38, 32, 35, -27, 19, -28, 25, 7, 43, 46, 24, 2, 4, 17, 12, 27, 15, 6, -14, -11, -3, -1, 30, 41, 59, 60, 62, 58, 62, 63, 56, 54, 50, 61, 63, 72, 62, 63, 27, 47, 62, 64, 73, 44, 56, 73, 60, 51, 59, 66, 58, 45, -90, 50, -89, 64, 58, 81, 66, -83, 63, 45, 71, 48, 75, 77, 71, -31, 29, 44, 44, 62, 77, 70, 70, -81, 35, 33, 40, 68, 44, 53, -63, -75, -74, -43, 45, 42, 111, 104, 115, 98, 108, 92, 101, 19, 87, 118, 106, 114, 110, 112, 109, 126, 102, 99, 116, 82, 116, 107, 121, 89, 94, 102, 82, -445, -98, 111, -107, 116, 112, 93, 103, -135, 82, -342, 137, 77, 106, 108, 120, -408, 136, -273, -193, 71, 112, 101, 131, -348, -180, -80, 86, 79, -470, -480, -427, -449, -364, -397, -30, 90, 11, 5, 10, 9, 7, 6, 5, 5, 15, 30, 15, 16, 10, 15, 10, 9, 8, 21, 18, 13, 5, 5, 13, -3, 11, 25, 15, 19, 19, 6, 14, 1, 22, 24, 31, 19, 17, 13, 6, 4, 39, 53, 30, 37, 11, 28, 6, 13, 42, 40, 64, 42, 16, 24, 9, 30, 31, 35, 42, 75, 28, 30, 45, 35},
    {-2, -2, 0, 0, 2, 2, -2, -2, -31, -33, -34, -32, -34, -34, -27, -11, -20, -24, -14, -18, -18, -21, -12, -25, -10, -14, -10, -13, -10, -12, -12, -10, -7, -11, -10, -16, -7, -14, -9, -8, -3, -9, -9, -9, -7, -5, -13, -4, -2, -11, -6, -8, -6, -13, -12, -5, 2, 0, -1, -2, -2, 2, 2, 0, -27, -34, -27, -39, -48, -27, -30, -37, -44, -41, -36, -48, -39, -51, -30, -42, -55, -43, -43, -37, -54, -41, -56, -42, -41, -38, -41, -39, -41, -43, -41, -40, -39, -40, -42, -38, -44, -44, -38, -40, -37, -43, -43, -47, -45, -52, -42, -42, -36, -44, -32, -39, -39, -43, -36, -31, -37, -35, -39, -42, -41, -37, -34, -46, -45, -46, -51, -42, -51, -35, -43, -45, -48, -48, -51, -46, -55, -51, -44, -48, -48, -61, -38, -52, -34, -58, -41, -44, -50, -44, -51, -50, -52, -45, -46, -50, -50, -46, -45, -50, -45, -51, -43, -52, -45, -51, -51, -45, -50, -50, -50, -45, -52, -50, -43, -47, -49, -52, -51, -47, -48, -66, -40, -54, -56, -44, -52, -53, -75, -78, -69, -66, -66, -67, -79, -88, -64, -67, -67, -69, -70, -71, -70, -70, -70, -67, -68, -67, -60, -64, -71, -68, -70, -72, -73, -68, -68, -78, -65, -68, -72, -68, -69, -66, -73, -71, -67, -69, -66, -70, -69, -66, -73, -70, -71, -64, -63, -63, -64, -69, -71, -69, -66, -66, -67, -67, -69, -76, -73, -76, -69, -67, -105, -98, -114, -118, -107, -115, -113, -116, -106, -103, -82, -104, -90, -115, -111, -114, -111, -102, -106, -98, -95, -115, -115, -118, -106, -106, -93, -111, -112, -105, -108, -121, -109, -100, -112, -107, -109, -112, -104, -113, -105, -110, -106, -112, -119, -117, -113, -117, -106, -109, -107, -109, -110, -114, -113, -112, -126, -109, -113, -108, -120, -128, -121, -152, -8, 18, -4, -3, 10, 2, -7, 3, -7, 19, 16, 11, 14, 10, 2, 10, -5, 20, 11, 12, 17, 6, 17, 11, -2, 18, 18, 10, 15, 19, 19, 20, 10, 18, 17, 16, 20, 14, 16, 8, 1, 16, 15, 18, 20, 20, 18, 14, -4, 12, 11, 19, 19, 17, 19, 16, -1, -6, 8, 14, 16, 18, 16, 18, 2, 2, -1, -1, 2, -1, 0, -1, 15, 19, 15, 14, 17, 24, 22, 18, 19, 20, 18, 15, 15, 22, 25, 17, 16, 20, 18, 15, 15, 20, 21, 15, 19, 25, 20, 27, 23, 24, 22, 17, 42, 33, 28, 31, 30, 33, 25, 29, 97, 79, 58, 53, 56, 66, 62, 91, 2, 2, 0, -1, -1, 0, 0, -1, 44, 21, 33, 33, 29, 35, 14, 59, 23, 32, 32, 31, 31, 35, 31, 28, 21, 34, 31, 39, 35, 30, 36, 23, 30, 34, 34, 30, 34, 37, 35, 32, 38, 28, 45, 43, 46, 43, 38, 43, 34, 37, 53, 64, 59, 69, 52, 50, 30, 35, 43, 39, 48, 34, 37, 46, 29, 35, 23, 18, 38, 15, 38, 39, 60, 66, 31, 40, 31, 33, 53, 71, 54, 40, 51, 36, 42, 46, 47, 49, 45, 55, 51, 48, 42, 51, 52, 48, 46, 45, 49, 52, 54, 42, 43, 49, 43, 46, 51, 60, 53, 51, 48, 53, 36, 47, 54, 33, 65, 56, 63, 44, 44, 39, 40, 43, 51, 50, 34, 51, 45, 49, 35, 28, 33, 22, 38, 44, 45, 52, 51, 56, 57, 53, 50, 42, 52, 59, 61, 61, 62, 59, 60, 45, 57, 62, 54, 60, 57, 60, 60, 51, 58, 61, 58, 63, 61, 63, 61, 58, 63, 69, 66, 65, 72, 70, 67, 65, 70, 70, 64, 69, 58, 67, 79, 75, 75, 74, 77, 74, 79, 67, 73, 80, 90, 90, 84, 96, 81, 83, 85, 91, 150, 143, 130, 121, 129, 125, 122, 114, 146, 130, 130, 126, 132, 132, 135, 133, 153, 130, 141, 133, 140, 132, 135, 149, 128, 130, 137, 145, 136, 140, 124, 148, 151, 129, 154, 145, 157, 134, 148, 140, 144, 174, 161, 145, -24, 177, 164, 156, 151, 163, 165, 152, 169, 178, 170, 158, 172, 190, 173, 160, 162, 166, 171, 179, -1, 10, 12, 12, 14, 14, 15, 14, 15, 19, 16, 14, 15, 18, 18, 14, 7, 19, 13, 8, 13, 14, 15, 11, 4, 16, 11, 8, 10, 10, 15, 0, 4, 16, 15, 10, 7, 11, 15, 5, 3, 22, 17, 20, 19, 13, 26, 9, 9, 35, 24, 21, 24, 30, 27, 4, -4, 22, 12, 0, 5, 7, 8, 0},
    {1, 0, 0, 0, 1, 0, 0, -1, 119, 91, 51, 22, 73, -15, 21, -27, 16, 8, 43, 20, 29, 29, 7, -16, -3, 11, 23, 27, 18, 8, 2, -13, -1, 14, 21, 7, 31, 7, 21, -10, 16, 19, 30, -12, 24, 18, 26, 3, 18, 32, 35, 8, 24, 24, 38, 13, -1, -2, 1, 0, 1, 0, 0, 0, -11, 7, -18, -35, -36, -38, -22, -12, -53, -46, -38, -50, 26, -67, -9, -20, -57, -44, -38, 16, -14, -4, -42, -6, -33, -4, -28, -19, -19, -20, -19, -24, -52, -58, -32, -20, -30, -38, -47, -45, -70, -58, -40, -66, -47, -53, -43, -67, -60, -42, -47, -79, -63, -79, -27, -57, -7, -63, -50, -61, -56, -37, -76, -13, -35, -33, -11, -23, -14, -19, -32, -36, -46, -39, -54, -16, -39, -21, -43, -66, -52, -45, -15, -32, -12, -29, -8, -16, -14, -23, -34, -26, -31, -25, -35, -33, -38, -30, -24, -42, -21, -39, -34, -53, -31, -38, -39, -43, -42, -34, -51, -28, -29, -41, -46, -56, -45, -47, -30, -34, -36, -45, -44, -61, -64, -48, -21, -11, -47, -51, -34, -16, -17, 5, -44, -43, -48, -47, -38, -40, -39, -33, -16, -36, -72, -73, -70, -64, -39, -31, -38, -63, -82, -67, -71, -66, -55, -64, -54, -56, -75, -59, -63, -50, -57, -60, -42, -59, -73, -59, -67, -61, -59, -64, -36, -56, -81, -54, -70, -62, -62, -65, -39, -64, -76, -76, -61, -47, -58, -58, -61, -71, -23, 24, 14, 78, 51, 29, 69, -9, -23, -3, 53, -36, 41, 26, -7, -18, -17, 4, 5, -2, 29, 20, 28, 6, -17, -7, 13, -20, 1, -15, -5, 0, -18, 6, -8, -18, -13, -9, 2, -10, -6, 4, -8, -10, -10, -7, 2, -1, -19, -10, -5, -12, -2, -11, 13, -4, 14, -28, -3, -25, -16, -8, -11, 3, -4, 128, 4, 7, 30, 34, 37, 34, -6, 78, 71, 40, 69, 75, 73, 50, 26, 72, 50, 46, 53, 61, 110, 63, 42, 64, 59, 56, 57, 69, 88, 80, 54, 69, 62, 57, 73, 71, 85, 77, 42, 58, 65, 59, 83, 84, 86, 97, 20, 44, 59, 63, 87, 93, 98, 92, 1, 7, 37, 36, 56, 73, 81, 81, -2, -1, -2, 2, 0, -2, 0, 1, 10, 2, -9, 13, 8, 16, 2, 22, 26, 11, 5, 13, 1, 18, 8, 30, 23, -4, 2, -11, -9, 14, 2, 27, 7, 13, -9, 16, -1, 13, 14, 10, 22, -4, -43, -24, -2, -9, 5, 15, 68, 33, -10, -11, -16, 24, 33, 77, 2, -1, 1, -2, -1, 0, 0, -1, -6, 58, 36, 48, 49, 53, 56, 102, 51, 60, 63, 65, 61, 67, 63, 76, 50, 55, 37, 65, 46, 29, 42, 46, 37, 51, 31, 24, 5, 20, 15, 35, 33, 2, 34, 8, 12, 31, 2, 34, 45, -8, -14, 3, 5, -7, 56, 3, -4, 37, 7, -23, -56, -36, 1, 13, 16, 43, 26, 1, 1, -8, 61, 30, 14, 29, 36, 59, 53, 35, 63, 118, 36, 41, 83, 55, 55, 61, 41, 62, 32, 58, 59, 61, 42, 54, 62, 53, 44, 57, 26, 76, 43, 36, 43, 53, 15, 26, 43, 54, 56, 69, 27, 43, 18, 27, -25, -34, 69, -17, 69, -18, 37, 59, 0, 28, -10, 14, 25, 63, 50, 43, -9, 1, -9, -6, -14, 68, 45, 57, 48, 41, 41, 32, 42, 39, 79, 66, 94, 66, 53, 64, 68, 58, 76, 61, 86, 77, 52, 71, 30, 69, 69, 82, 63, 90, 39, 61, 43, 57, 69, 88, 71, 84, 71, 79, 47, 59, 72, 63, 68, 39, 26, 63, 96, 74, 67, 77, 75, 35, 52, 72, 94, 94, 79, 39, 61, 22, 67, 37, 112, -18, -44, 75, 37, 46, 68, 248, 242, 82, -7, 42, 43, 34, 26, 29, 26, 22, 57, 1, 69, 67, 47, 21, 23, 59, 10, 80, 55, 83, 75, 67, 70, 45, 112, 59, 97, 122, 66, 49, 43, 19, 50, 44, 60, 112, -51, 47, 18, 47, 80, 95, 126, 127, 84, 0, 87, 76, 72, 156, 141, 128, 149, 108, 100, 136, 10, 26, 63, 74, 71, 69, 58, 61, 11, 90, 73, 69, 72, 66, 65, 55, 20, 68, 63, 64, 62, 66, 74, 52, 36, 70, 61, 68, 72, 74, 77, 58, 18, 79, 83, 80, 85, 86, 82, 63, 26, 100, 95, 92, 94, 78, 80, 63, 4, 102, 90, 91, 83, 80, 91, 60, -15, 28, 22, 38, 48, 19, 14, -13},
    {0, -1, 0, -1, 0, 1, -1, -2, -27, 8, 18, 0, 6, 43, 43, 24, 22, 20, 16, 18, 17, 11, 17, 16, 16, 17, 11, 13, 11, 16, 15, 14, 11, 9, 13, 9, 9, 8, 12, 12, 11, 11, 17, 9, 14, 11, 12, 10, 11, 12, 10, 10, 13, 14, 11, 8, 2, 2, 0, 1, -2, -1, -1, -2, 21, -7, -1, 4, 9, 12, 3, 25, 25, 15, 32, 11, 62, 33, 19, 21, 20, 32, 33, 33, 32, 40, 23, 12, 29, 26, 29, 26, 27, 29, 30, 27, 30, 23, 27, 20, 27, 31, 26, 32, 28, 29, 29, 36, 34, 36, 35, 26, 33, 25, 33, 36, 41, 36, 24, 35, 23, 29, 33, 35, 29, 33, 26, 26, 27, 20, 7, 13, 1, 7, 2, 25, 33, 31, 23, 13, 29, 24, 29, 34, 30, 28, 41, 20, 31, 22, 29, 17, 26, 36, 32, 29, 32, 29, 29, 31, 34, 23, 32, 28, 31, 29, 29, 33, 33, 30, 41, 35, 42, 42, 38, 29, 31, 37, 33, 34, 40, 36, 37, 27, 40, 40, 30, 35, 32, 30, 27, 37, 63, 58, 59, 67, 56, 48, 48, 51, 60, 57, 51, 65, 52, 50, 54, 55, 56, 59, 52, 56, 47, 44, 47, 56, 50, 52, 46, 48, 44, 47, 49, 55, 58, 45, 55, 53, 42, 50, 46, 53, 54, 54, 50, 58, 53, 52, 53, 45, 51, 52, 49, 58, 53, 49, 52, 47, 53, 56, 56, 58, 56, 57, 54, 50, 138, 131, 115, 99, 95, 98, 100, 126, 131, 129, 128, 127, 134, 128, 127, 128, 123, 125, 123, 115, 117, 113, 123, 125, 123, 119, 128, 126, 128, 121, 121, 126, 129, 120, 123, 124, 124, 130, 117, 132, 131, 126, 132, 132, 135, 131, 129, 123, 124, 126, 130, 134, 133, 127, 125, 134, 125, 131, 131, 135, 136, 122, 126, 118, 31, 43, 29, 28, 27, 41, 34, 31, 43, 47, 19, 23, 19, 16, 15, 38, 34, 22, 22, 18, 19, 22, 16, 34, 22, 19, 16, 16, 17, 19, 15, 21, 18, 18, 19, 17, 15, 12, 13, 16, 18, 22, 26, 17, 20, 17, 13, 11, 27, 23, 23, 21, 21, 15, 12, 14, 28, 20, 18, 21, 20, 13, 14, 15, -1, 0, 2, 2, 2, -2, -1, -2, -5, -13, -9, -9, -9, -17, -16, -11, -11, -12, -11, -12, -12, -13, -16, -13, -8, -10, -14, -13, -18, -14, -14, -12, -7, -14, -12, -15, -17, -18, -17, -14, -17, -13, -5, -11, -23, -16, -16, -24, -50, -42, -47, -27, -33, -45, -52, -47, 0, -1, 1, -1, 2, 0, 2, 0, 12, -40, -7, -40, -42, -40, -41, -18, -41, -44, -42, -44, -46, -45, -44, -49, -42, -50, -44, -49, -47, -45, -43, -43, -50, -49, -52, -43, -53, -50, -43, -44, -39, -42, -58, -27, -49, -55, -43, -51, -52, -44, -29, -61, -57, -31, -54, -47, -27, -58, -41, -10, -39, -25, -28, -41, -30, -38, -33, -31, -24, -16, -41, -46, 19, -30, -50, -26, -43, -47, -51, -33, -44, -55, -58, -55, -52, -62, -55, -39, -54, -56, -57, -54, -55, -56, -59, -52, -59, -56, -56, -61, -56, -59, -48, -55, -56, -54, -61, -40, -54, -66, -55, -63, -54, -67, -16, -29, -62, -6, -65, -41, -48, -68, -54, -43, -43, -43, -57, -70, -33, -41, -9, -26, -13, -21, -32, -62, -65, -70, -70, -71, -71, -73, -71, -68, -63, -65, -77, -72, -72, -80, -76, -67, -65, -80, -82, -80, -73, -76, -69, -75, -78, -77, -86, -77, -77, -84, -72, -76, -82, -83, -77, -62, -85, -84, -86, -93, -75, -84, -95, -74, -97, -77, -103, -80, -78, -80, -81, -50, -94, -93, -102, -81, -94, -76, -82, -10, -100, -35, -90, -11, -40, -106, -100, -112, -114, -126, -120, -94, -58, -127, -123, -120, -119, -119, -125, -110, -99, -123, -138, -135, -134, -129, -129, -122, -130, -165, -153, -125, -165, -147, -160, -133, -175, -158, -164, -136, -140, -152, -140, -145, -143, -117, -154, -162, -156, -154, -136, -146, -127, -140, -145, -159, -149, -122, -148, -146, -106, -160, -148, -149, -176, -151, -133, -141, 60, 49, 25, 30, 27, 27, 23, 26, 59, 11, 12, 23, 24, 20, 17, 22, 54, 14, 14, 17, 19, 20, 11, 26, 46, 11, 11, 10, 10, 11, 1, 18, 50, -2, -3, -4, 0, -2, -3, 11, 41, -4, -9, -6, -7, -7, -1, 13, 51, -5, -8, -12, -7, -12, -12, 12, 50, 33, 19, 8, 12, 25, 28, 58},
    {0, -2, 0, -2, 2, 0, 0, 2, -63, -38, -64, -59, -54, -97, -86, -142, -33, -45, -33, -29, -45, -47, -56, -39, -15, -21, -17, -14, -19, -24, -26, -19, -11, -16, -13, -15, -16, -19, -18, -19, -12, -13, -9, -9, -12, -17, -14, -15, -6, -9, -7, -5, -10, -13, -11, -12, -2, 2, 1, -2, -2, 1, -2, -1, -34, -21, -35, -36, -19, -36, -15, -44, -42, -49, -69, -55, -78, -69, -43, -42, -10, -51, -47, -41, -39, -37, -19, -26, -42, -46, -51, -51, -41, -49, -49, -41, -42, -54, -47, -50, -50, -50, -55, -42, -46, -51, -52, -53, -48, -52, -47, -43, -42, -33, -52, -52, -51, -48, -10, -47, -41, -46, -31, -41, -37, -30, -43, -14, -27, -28, 8, -25, 12, -38, -40, -44, -46, -58, -46, -30, -47, -34, -60, -60, -39, -29, -37, -39, -83, -47, -55, -60, -46, -43, -47, -61, -56, -79, -65, -29, -41, -59, -52, -58, -66, -61, -40, -54, -53, -57, -63, -61, -60, -56, -62, -46, -41, -55, -68, -56, -51, -57, -53, -32, -52, -38, -53, -28, -28, -48, -38, -1, -56, -80, -76, -87, -79, -66, -69, -27, -89, -87, -86, -48, -67, -70, -29, -59, -87, -87, -98, -97, -89, -100, -66, -91, -86, -92, -90, -97, -93, -96, -93, -87, -87, -85, -87, -87, -89, -83, -95, -81, -83, -79, -89, -84, -76, -75, -75, -68, -83, -78, -86, -84, -81, -81, -65, -69, -86, -90, -85, -83, -82, -77, -71, -69, -168, -162, -125, -92, -169, -178, -108, -115, -132, -135, -136, -147, -139, -126, -134, -114, -117, -125, -142, -144, -158, -150, -108, -99, -160, -126, -151, -143, -144, -142, -154, -97, -110, -136, -124, -142, -139, -130, -126, -109, -122, -113, -132, -127, -130, -118, -119, -102, -110, -121, -111, -114, -112, -107, -110, -101, -102, -132, -108, -100, -109, -94, -92, -13, 8, 23, 3, 12, 16, 29, 62, 78, 12, -13, -14, 1, 10, 6, 24, 37, 35, -9, 1, -2, 13, 20, 32, 40, 32, -5, 8, 32, 17, 22, 41, 45, 27, 16, 15, 19, 26, 39, 54, 64, 24, 18, 17, 21, 28, 44, 41, 52, 11, 8, 22, 29, 31, 44, 43, 43, 7, 14, 23, 30, 33, 38, 38, 45, 1, -1, 1, -1, 0, -2, -2, 0, 6, 8, 7, 18, 14, 11, 7, 6, 6, 10, 11, 14, 8, 9, 10, 7, 10, 4, 12, 11, 9, 8, 6, 9, 9, 6, -2, -3, 3, 6, 4, 9, 7, -2, -10, -11, -4, -19, -20, -2, 12, 30, 30, 5, -25, -10, -32, -78, -2, -1, 1, -1, 2, -1, 0, 1, 6, 43, 27, 47, 32, 31, 38, 19, 25, 20, 37, 48, 44, 43, 38, 27, 37, 30, 37, 44, 41, 41, 40, 38, 27, 4, 33, 23, 36, 30, 17, 30, 29, 19, 8, 23, 11, 4, 12, 27, 19, -11, -31, -35, -24, -44, -9, -17, 3, 12, -19, -3, -23, -10, -30, 2, 14, 14, -2, 6, -9, -5, -3, 31, 23, 31, 34, 22, 31, 32, 20, 31, 20, 34, 26, 41, 42, 29, 30, 19, 20, 27, 32, 31, 35, 33, 33, 20, 33, 12, 21, 18, 32, 11, 15, 29, 18, 20, 14, 23, 27, 10, 15, 15, 6, 18, -30, -17, -5, -14, -9, -4, 32, 36, 1, -8, -16, -18, 27, 18, -6, 16, -5, -1, -7, -3, -24, 38, 47, 51, 47, 49, 48, 48, 50, 44, 40, 35, 47, 56, 47, 42, 43, 43, 34, 44, 41, 44, 36, 49, 44, 39, 48, 37, 47, 43, 44, 36, 33, 41, 28, 50, 43, 42, 30, 27, 38, 42, 45, 43, 30, 0, -33, -38, 1, 33, 51, 55, 40, 33, -1, 29, 37, 44, 30, 38, 15, -23, -19, -45, 30, 28, 112, 124, 128, 130, 127, 106, 121, 143, 100, 113, 127, 130, 130, 118, 113, 122, 102, 116, 127, 124, 131, 129, 123, 120, 117, 108, 121, 126, 128, 120, 119, 126, 115, 106, 110, 124, 114, 104, -33, 121, 108, 24, 83, 94, 166, -152, -122, 116, 107, 104, 126, 140, 134, 59, 102, 101, 101, 97, 117, 135, 116, 74, 74, 111, 58, 36, 22, 32, 27, 27, 25, 25, 34, 16, 28, 30, 26, 26, 21, 24, 38, 20, 34, 35, 33, 31, 21, 31, 34, 17, 35, 33, 30, 34, 24, 40, 33, 17, 29, 39, 39, 36, 33, 35, 40, 5, 28, 29, 19, 38, 13, 25, 63, 9, 14, 29, 24, 0, 1, 18, 73, 48, 50, 52, 27, 12, 0, -27},
    {1, -2, 0, -1, 2, 1, 1, -1, -136, -117, -84, -57, -75, -57, -62, -82, -67, -51, -54, -35, -45, -51, -42, -38, -28, -36, -28, -39, -36, -38, -31, -25, -24, -35, -30, -27, -28, -38, -38, -22, -31, -33, -36, -15, -26, -28, -41, -25, -24, -28, -25, -15, -26, -42, -37, -27, 0, -2, -1, 0, 2, 2, -2, -2, -43, -60, -57, -61, -73, -49, -54, -50, -49, -66, -67, -92, -81, -126, -80, -80, -65, -71, -109, -100, -130, -113, -84, -75, -56, -39, -65, -55, -67, -63, -43, -70, -49, -49, -57, -50, -56, -47, -65, -46, -30, -43, -38, -55, -46, -55, -45, -31, -40, -57, -46, -31, -45, -47, -62, -41, -63, -33, -49, -50, -51, -66, -32, -54, -77, -92, -88, -76, -91, -71, -78, -73, -76, -77, -89, -103, -111, -103, -97, -79, -69, -102, -100, -97, -110, -115, -98, -81, -78, -67, -85, -88, -89, -84, -73, -72, -60, -78, -70, -82, -89, -65, -77, -72, -66, -79, -70, -64, -66, -62, -75, -75, -73, -57, -76, -50, -60, -78, -67, -76, -81, -80, -46, -71, -68, -51, -90, -68, -89, -106, -140, -119, -145, -175, -114, -111, -85, -83, -93, -103, -104, -107, -104, -95, -81, -79, -86, -85, -86, -119, -99, -98, -74, -72, -79, -87, -92, -96, -88, -87, -72, -72, -78, -74, -102, -86, -96, -79, -75, -80, -77, -82, -82, -85, -90, -74, -61, -81, -80, -85, -83, -86, -103, -73, -55, -66, -69, -77, -80, -76, -69, -64, -174, -186, -187, -205, -233, -212, -227, -186, -167, -156, -178, -158, -171, -176, -184, -169, -152, -176, -168, -170, -182, -178, -188, -169, -160, -155, -171, -166, -176, -157, -171, -166, -143, -159, -164, -156, -169, -178, -168, -170, -149, -152, -172, -152, -169, -156, -171, -172, -155, -160, -158, -154, -165, -171, -176, -167, -154, -149, -158, -152, -158, -160, -174, -171, 26, -14, 16, 20, 13, 12, 14, 21, 24, -15, -11, -1, -8, -20, -17, 9, 10, -19, -10, -9, -6, -20, -21, 2, 9, -3, -5, 1, -5, -7, -5, 8, 3, 1, 5, 7, -1, -1, 3, 10, 10, 8, 7, 5, -2, 0, -4, 5, 12, 9, 2, 6, -2, -2, -1, -4, 19, 9, 1, 6, -2, -7, -7, -7, 0, 1, -1, 1, 2, 2, -2, -1, 8, 14, 7, 11, 11, 24, 18, 10, 6, 16, 16, 17, 13, 13, 23, 8, 14, 18, 20, 17, 14, 16, 16, 13, 25, 20, 16, 15, 17, 18, 21, 20, 34, 25, 23, 19, 16, 17, 17, 35, 63, 50, 53, 34, 36, 32, 33, 39, 2, -2, 2, -1, -2, 2, -1, 0, 72, 47, 62, 64, 58, 42, 44, 39, 50, 51, 49, 55, 56, 67, 39, 29, 49, 58, 63, 66, 66, 61, 58, 56, 58, 43, 60, 40, 35, 63, 41, 59, 59, 55, 59, 36, 46, 40, 53, 55, 64, 62, 43, 40, 32, 29, 32, 49, 67, 61, 64, 50, 37, 42, 28, 46, 40, 43, 31, 29, 35, 22, 36, 43, 84, 107, 59, 82, 77, 60, 68, 57, 80, 70, 67, 70, 69, 73, 74, 61, 67, 78, 74, 69, 73, 76, 76, 58, 76, 47, 68, 52, 48, 69, 42, 81, 64, 58, 63, 38, 68, 52, 65, 57, 66, 70, 46, 53, 40, 43, 41, 53, 80, 67, 73, 27, 46, 48, 48, 71, 45, 49, 40, 27, 46, 23, 59, 63, 83, 89, 90, 97, 98, 102, 86, 86, 71, 77, 89, 98, 104, 94, 84, 79, 79, 100, 88, 80, 94, 97, 97, 87, 93, 79, 99, 73, 58, 97, 56, 94, 97, 101, 110, 42, 86, 93, 102, 97, 99, 95, 70, 53, 34, 39, 66, 83, 96, 91, 96, 60, 67, 67, 68, 81, 106, 143, 69, 47, 35, 26, 94, 169, 187, 133, 141, 132, 153, 141, 152, 161, 172, 137, 138, 144, 149, 151, 147, 151, 147, 143, 145, 126, 154, 154, 154, 142, 142, 101, 145, 46, 79, 141, 40, 149, 128, 124, 105, 47, 163, 48, 93, 141, 143, 120, 164, 52, 46, -12, -37, 143, 145, 158, 95, 35, 141, 149, 168, 152, 114, 132, 121, 73, 94, 70, 125, 159, -6, -7, 3, -10, -10, -13, -14, -17, 4, -12, -13, -18, -18, -19, -19, -14, 24, -9, -13, -15, -12, -18, -17, -18, 8, -5, -12, -15, -16, -13, -14, -9, 24, -10, -12, -13, -13, -17, -14, -13, 23, -14, -9, -16, -27, 5, -12, -10, 12, -8, -8, -2, -7, -4, -3, 3, 1, 5, 0, 25, 14, 35, 35, 25},
    {-2, -2, 0, 1, -1, 1, 2, 0, -53, -27, -29, -103, -59, -45, -3, -30, -14, -9, -3, -30, -35, 8, -42, -14, 19, 19, 13, 9, 28, 10, 24, 5, 12, 34, 34, 32, 36, 29, 19, 10, 7, 32, 35, 29, 34, 20, 47, 1, 4, 29, 18, 42, 38, 74, 39, -3, 0, 2, 0, -1, -2, 0, 0, -2, -24, -11, -39, -19, -23, -24, -19, 0, 28, 0, 58, 18, 44, 41, -15, -27, 33, 43, 19, -16, 26, -69, 6, -35, 13, 11, -3, 4, -11, -24, -21, 0, 17, 13, 5, 20, 1, 13, 7, 28, 22, 29, 22, 41, 36, 32, 28, 19, 18, 29, 13, 47, 47, 62, 21, 16, -7, 29, 16, 37, 26, 43, 33, 12, -3, -29, -9, -22, -23, 0, -47, 18, 23, 43, 38, 16, 45, -26, 57, 38, 22, 28, 30, 7, -24, -22, -14, -14, 25, 8, 11, 13, 24, -18, 17, 12, 42, 21, 6, 27, 12, 43, 13, 45, 13, 21, 40, 41, 53, 31, 41, 21, 39, 45, 36, 72, 60, 80, 44, 6, 10, -56, 47, 70, 62, 52, 40, -3, -92, -79, -205, -21, -279, -103, -264, -116, -52, -78, -46, -33, -84, -77, -86, -51, -42, -34, -41, -28, -92, -96, -124, -72, -17, -28, -27, -38, -45, -40, -22, -7, 4, -17, 1, -32, -38, -5, -47, 8, 2, -7, 12, 7, -13, -5, 9, 0, -2, -23, -21, 22, 8, 16, -48, -12, 16, -3, 10, 55, 27, 45, -6, 22, -379, -221, -363, -248, -185, -316, -355, -332, -367, -263, -281, -206, -350, -431, -242, -219, -383, -319, -373, -187, -375, -420, -384, -152, -171, -335, -290, -205, -364, -270, -197, -350, -137, -191, -340, -203, -235, -235, -321, -278, -195, -344, -242, -99, -106, -372, -308, -269, -137, -97, -98, -66, -75, -34, -145, -180, -382, -418, -105, -20, -66, -212, -232, -317, -86, -107, -119, -139, -105, -123, -136, -148, -102, -100, -112, -138, -126, -104, -87, -138, -152, -106, -156, -178, -151, -126, -77, -101, -191, -122, -131, -150, -145, -138, -104, -86, -153, -130, -155, -158, -98, -86, -83, -118, -175, -142, -93, -37, -17, -33, -63, -121, -195, -165, -63, -32, -6, -5, -49, -64, -189, -146, -36, -16, 8, -14, -24, -70, 1, 1, 1, -1, -2, -1, 0, 0, 3, -23, -9, -11, -12, -34, -35, 4, -10, -26, -18, -13, -21, -10, -41, -8, -10, 1, -26, -12, -30, -21, -2, -6, -6, -13, 0, -5, -60, -17, -38, -6, 1, 33, 29, 16, 21, 14, 38, -16, -95, -37, -20, 145, 116, 167, 16, -41, 0, 0, 0, 1, -1, 1, -2, 2, -34, -4, -31, -13, 2, 12, -4, -6, -34, -75, -23, -19, -14, -30, -50, -32, -8, -27, -9, -19, -13, -3, -15, -4, -5, -3, 10, 12, 16, 8, 19, 0, -15, 12, -2, 64, -28, 22, 1, -14, -20, 31, -9, 8, 11, 55, 33, -7, -17, -113, 45, 86, 200, 67, -67, -12, -51, -33, 25, 60, 65, 45, -21, -67, -9, 18, -14, -7, -34, 3, -40, -40, -53, -33, -38, -40, -25, -55, -18, -46, -12, -36, -21, -15, -21, -39, -35, -20, -43, -5, 1, -26, -20, -18, -8, -55, -1, -10, -10, 45, -56, 2, -24, -23, 22, 13, 3, 38, 53, 34, 4, 12, -40, -53, 23, 92, 91, 16, -36, -51, -69, 10, 2, 57, 85, 19, 0, -89, -6, -8, 0, -18, -17, -2, -11, -12, -14, -62, -26, -22, -30, -34, -20, -16, -11, -18, -9, -17, -32, 4, -5, 0, -10, -13, 18, -6, 12, 9, 25, -12, 17, 3, 5, 20, -43, 31, -5, 40, 3, 17, 31, 51, 144, 150, 91, 25, -41, -26, -16, 187, 173, 163, 11, -18, -1, -66, 81, 182, 146, 138, -51, -9, -1, -21, -6, -19, -5, -14, -26, -9, -26, -28, -11, -16, -14, -46, -14, -64, -9, 8, 7, 3, 11, -7, -13, -27, 7, -23, 19, -42, -22, 6, -3, -17, -3, 1, -13, 43, -61, 13, -43, 17, 7, 78, 8, 49, 247, 211, 61, 6, -52, -46, -30, 392, 202, 140, -69, -41, 42, 5, 113, 309, 348, 216, -117, -98, -80, -69, -44, -33, -33, -28, -40, -48, -61, -42, -35, -19, -20, -21, -25, -45, -52, -34, -14, -10, -12, -11, -23, -31, -47, -47, -31, -11, -13, -7, -17, -35, -50, -42, -34, -13, -23, -53, -59, -66, -81, -94, -61, -8, 35, -128, -77, -168, -80, -57, -56, -9, 39, -70, -84, -110, -79, -45, -6, -58, -53, -25, -31, -59},
    {-1, 1, -1, -2, -2, 1, 2, 1, -258, -176, -192, -118, -132, -129, -109, -140, -78, -93, -71, -45, -45, -12, -34, -34, -23, -24, -13, -20, -29, -18, -12, -17, -8, -19, 7, -20, 9, -22, -12, -19, -15, -9, -27, 3, -24, -9, -16, -13, -12, -3, -13, 8, -12, -19, -12, -15, 0, 2, 2, 2, 2, -1, 0, 2, -32, -14, -12, -13, -38, -54, -31, 0, -22, -38, 9, 1, -34, -13, -35, -61, -20, -13, -71, -42, -51, -39, -44, 11, -20, -38, -48, -56, -56, -83, -19, -57, -29, -38, -56, -25, -67, -18, -78, -33, -15, -38, 19, -40, -9, -63, -21, -35, -72, -15, -44, 3, -42, -21, -42, -31, -52, -22, -40, -41, -44, -75, -27, -30, -93, -86, -55, -40, -9, -53, 14, -23, -60, -20, -69, -36, -19, -6, -24, -47, -43, -77, -46, -82, -52, -28, -26, -42, -5, -51, -66, -33, -51, -34, -45, -56, -24, -43, -45, -52, -33, -55, -77, -29, -53, -24, -54, -30, -52, -25, -42, -45, -2, -32, -41, -26, -33, -49, -30, -6, -47, -14, -32, -54, -55, -33, -38, -83, -57, -17, -58, -9, -37, -59, -78, -89, -82, -64, -61, -115, -87, -87, -107, -96, -68, -96, -49, -97, -91, -108, -72, -102, -93, -77, -67, -92, -68, -76, -78, -73, -76, -80, -78, -54, -111, -69, -101, -71, -82, -73, -74, -91, -76, -84, -76, -80, -76, -87, -70, -74, -81, -72, -122, -81, -64, -70, -64, -66, -68, -75, -79, -73, -150, -110, -74, -70, -57, -74, -110, -145, -171, -137, -128, -171, -164, -118, -161, -144, -135, -166, -124, -194, -161, -152, -142, -157, -139, -140, -180, -175, -164, -174, -145, -175, -125, -148, -148, -141, -151, -173, -188, -160, -143, -126, -167, -139, -154, -132, -175, -177, -147, -133, -120, -137, -135, -157, -147, -159, -144, -132, -146, -135, -139, -164, -185, -189, 14, 19, 3, 3, 4, 7, 15, 45, 8, 4, 32, 38, 31, 32, 27, 2, -8, 8, 36, 22, 28, 44, 2, 13, -2, 22, 21, 12, 31, 19, 14, -6, 17, 17, 12, 10, 11, 9, 15, -1, 19, 14, 9, 15, 6, 4, 13, 3, 24, 8, 9, 23, 10, 13, 21, 14, -2, 10, 8, 7, 14, 5, 14, 6, 2, 2, 1, 1, 0, -1, -1, 0, 23, 17, 14, 33, 23, 21, 16, 22, 19, 13, 19, 24, 17, 25, 21, 23, 17, 6, 31, 0, 40, 13, 31, 22, 14, 26, 22, 35, -3, 25, 22, 22, 0, 5, 10, 24, 38, 40, 71, 37, 28, 9, 35, 49, 73, 75, 84, 98, 1, 1, 0, 2, -2, 1, -1, 2, -71, 26, -15, 37, 35, 21, 33, 14, 33, 9, 37, 48, 39, 42, 2, 26, 29, 31, 43, 48, 41, 40, 31, 30, 33, -29, 45, -20, 74, 25, 51, 31, 13, 46, 21, 66, -20, 50, 19, 28, 10, 7, 33, 30, 48, 14, 21, 10, 11, -13, 15, 1, -24, 35, 9, 22, -10, -1, 10, 18, 9, 2, 4, 5, -442, -24, 24, 7, 4, 32, 42, 3, 22, 36, 45, 52, 43, 21, 31, 5, 31, 26, 47, 47, 44, 37, 40, 24, 23, 5, 51, 14, 72, 32, 52, 31, -4, 25, 16, 54, 1, 52, 25, 23, 14, 8, 2, 20, 73, 21, 29, 23, 11, 16, 24, 44, 13, 23, 30, 35, 0, 2, -35, 4, -8, 10, 26, 25, 28, 46, 38, 45, 42, 47, 35, 33, 24, 16, 53, 67, 58, 47, 20, 29, 32, 45, 46, 40, 49, 67, 47, 40, 48, -5, 65, 0, 81, 45, 76, 35, 22, 61, 59, 82, 14, 89, 65, 65, 46, 43, 46, 49, 92, 89, 73, 79, 55, 50, 54, 44, 68, 78, 35, 39, 23, 8, 47, 27, 80, 52, 85, -14, 5, 83, 55, 71, 54, -25, 49, 37, 67, 69, 84, 85, 89, 75, 85, 61, 58, 83, 81, 84, 97, 94, 87, 70, 92, 5, 124, -38, 146, 78, 160, 73, 53, 68, 47, 138, -19, 10, 126, 81, 80, 85, 8, 69, 174, 142, 158, 69, 57, 71, 104, 107, 94, 120, 16, 79, 113, 61, 72, 44, 45, 113, 122, 108, -552, -540, -19, -8, 0, -17, -15, -34, -518, -19, 6, 11, 12, 5, 4, 1, -17, -12, -2, 8, 25, 21, 21, 8, 35, 48, 22, 33, 30, 34, 35, 35, 59, 59, 19, 37, 55, 59, 51, 55, 43, 42, 45, 32, 74, 75, 63, 59, -479, 4, 15, 48, 57, 84, 83, 100, -538, -546, -488, -1, 111, 139, 144, 172},
    {2, 0, 1, -1, -1, 2, -1, 0, -274, -244, -255, -281, -283, -259, -169, -154, -86, -142, -145, -107, -131, -162, -126, -77, -28, -39, -38, -37, -38, -43, -38, -50, -11, -17, -15, -13, -13, -12, -10, -11, -12, -13, -11, -1, -8, -18, -12, -16, -19, -3, -17, -16, -20, -8, -16, -25, -2, -2, 0, -1, 0, -2, -1, -1, -48, -87, -33, -29, -18, -34, -97, -5, -68, -74, -96, -17, -162, 51, -180, -12, -109, -101, -89, -80, -97, -83, -96, -118, -120, -77, -79, -68, -102, -97, -44, -105, -102, -122, -79, -92, -87, -98, -120, -166, -170, -104, -97, -96, -84, -108, -102, -155, -84, -101, -116, -120, -120, -158, -148, -217, -156, -161, -148, -103, -141, -163, -169, -166, -98, -150, -144, -119, -137, -133, -161, -121, -138, -153, -172, -184, -94, -141, -158, -130, -161, -174, -149, -164, -143, -135, -147, -141, -157, -151, -140, -121, -121, -140, -136, -146, -128, -158, -134, -145, -142, -154, -144, -95, -169, -121, -118, -122, -140, -132, -159, -146, -149, -128, -128, -118, -134, -155, -151, -178, -150, -174, -166, -129, -162, -168, -172, -141, -199, -132, -115, -131, -114, -128, -151, -251, -177, -138, -150, -125, -145, -181, -173, -137, -205, -174, -121, -160, -139, -157, -154, -202, -151, -132, -193, -131, -164, -142, -169, -252, -162, -181, -161, -154, -129, -142, -163, -111, -160, -155, -165, -152, -113, -130, -157, -153, -152, -150, -174, -187, -163, -172, -181, -205, -203, -206, -183, -163, -201, -228, -275, -263, -166, -119, -126, -93, -110, -171, -121, -195, -136, -153, -138, -143, -142, -159, -136, -174, -102, -118, -147, -145, -118, -117, -124, -47, -151, -120, -135, -141, -136, -181, -182, -75, -116, -189, -139, -149, -143, -149, -158, -122, -133, -168, -158, -159, -158, -170, -146, -107, -172, -154, -166, -140, -145, -166, -149, -135, -125, -196, -194, -197, -110, -109, -137, -224, 22, 34, 48, 60, 48, 47, 52, 32, 32, 39, 50, 57, 52, 46, 40, 39, 38, 30, 36, 39, 41, 36, 35, 18, 36, 37, 39, 38, 38, 35, 35, 19, 28, 28, 37, 36, 34, 39, 36, 32, 17, 26, 22, 25, 27, 25, 20, 23, 23, 23, 20, 12, 12, 18, 16, 9, 16, 28, 17, 6, 2, 9, 6, 9, 1, 2, 2, 1, -1, -1, 0, 1, 26, 8, 14, 11, 9, 16, 19, 27, 21, 17, 12, 0, 10, 16, 15, 26, 16, 6, 15, 10, 16, 8, 14, 17, 22, 9, 13, -5, 7, 14, 17, 27, 16, 7, -2, -1, 7, 13, 36, 34, 23, 23, 14, -4, 21, 30, 69, 60, 1, -1, 0, -2, -2, 1, 0, -2, -97, -10, -87, -77, -60, -53, -1, -26, 17, -37, -38, -63, -48, -40, -62, -62, -67, -50, -43, -35, -55, -39, -45, -68, -77, -73, -40, -39, -47, -47, -63, -88, -106, -32, -33, -42, -47, -38, -47, -92, -101, -74, -55, -37, -43, -39, -45, -57, -55, -102, -76, -65, -67, -64, -84, -25, 0, 8, 18, -7, -22, -9, 12, -7, -79, -39, -114, -46, -81, -95, -45, -73, -53, -79, -27, -40, -37, -73, -56, -22, -82, -39, -40, -44, -46, -46, -32, -63, -45, -49, -47, -38, -29, -33, -45, -42, -66, -50, -66, -41, -45, -31, -39, -59, -105, -65, -70, -48, -20, -57, -51, -102, -104, -102, -41, -27, -55, -63, -71, -70, -22, -28, -34, -21, -27, -10, -18, -20, -85, -65, -87, -124, -134, -167, -149, -109, -149, -82, -69, -82, -82, -128, -119, -174, -88, -104, -67, -95, -87, -89, -82, -94, -92, -71, -78, -97, -108, -102, -93, -99, -87, -69, -47, -81, -96, -71, -60, -106, -73, -103, -95, -91, -85, -96, -95, -68, -59, -79, -59, -69, -77, -100, -81, -69, -69, -43, -53, -53, -41, -36, -33, -52, -158, -121, -125, -129, -160, -195, -177, -160, -163, -180, -177, -146, -137, -185, -177, -202, -165, -159, -179, -209, -148, -174, -165, -145, -143, -156, -138, -129, -147, -139, -114, -132, -148, -135, -141, -153, -80, -123, -117, -146, -132, -126, -123, -130, -154, -139, -135, -162, -149, -139, -186, -158, -136, -94, -106, -127, -95, -95, -83, -115, -138, -121, -37, -89, 51, 67, 39, 20, 18, 33, 38, 43, 43, 36, 24, 15, 19, 18, 21, 33, 21, 25, 18, 11, 11, 11, 16, 23, 16, 23, 21, 19, 15, 13, 21, 28, 21, 27, 24, 15, 18, 19, 23, 31, 28, 28, 27, 17, 15, 17, 21, 32, 59, 36, 31, 17, 23, 20, 16, 46, 55, 49, 54, 42, 35, 41, 37, 39},
    {0, -2, -1, 2, 2, 0, 1, 1, -45, -7, -63, 141, -38, -21, -108, -279, -9, 3, -24, -10, -37, -43, -211, -114, -4, -20, -5, -27, -49, -27, -46, -29, -11, 2, -25, -24, -30, -25, 2, -4, -6, -27, -15, -19, -22, -12, -40, -3, 8, -25, -10, -19, -5, -35, -32, 10, -2, 1, 0, 1, -2, 1, 2, -1, -25, -3, -35, 7, -66, 4, -34, 14, -62, -169, -61, 69, 447, -115, 11, -85, -12, -68, -182, -61, -170, 32, -62, -33, -32, 23, -5, 55, -1, 12, -8, -34, -7, 4, 3, 15, -4, 11, -2, -4, -18, -29, -22, -27, -28, -13, -22, -17, -20, -54, -33, -31, -21, -36, -27, -21, -58, -17, -33, -40, -19, -11, -6, -42, -32, -68, -31, 42, -72, 13, -27, -58, -23, -64, -190, -27, -108, -4, -157, -30, -7, -108, -21, -4, 13, -41, -86, -17, -38, 6, 8, -25, -43, -5, -3, -79, -25, 24, -2, -30, -11, -21, 7, -40, -13, -25, -30, -26, -24, -41, -37, -8, -39, -42, -52, -56, -34, -52, -29, 6, -28, -14, -30, -31, -31, -11, -24, -46, -17, -48, -71, -22, -15, -216, -60, -1, -34, -7, -16, -35, -37, -1, -4, -31, -25, -25, -15, 31, 44, 12, -2, -45, 6, -8, -20, 2, 3, -14, -5, -22, -18, -15, -2, 2, -6, -4, 9, -33, -23, -41, -22, -19, -28, -5, -19, -31, -31, -33, -42, -19, -30, -43, -30, -24, -35, -36, -32, -40, -45, -39, -33, -39, 15, -1, -175, 59, -175, -68, -90, -20, -49, -47, -64, -40, -46, 18, -37, -63, -29, -35, -6, 19, -12, -8, -63, -38, -11, 11, 5, -15, -3, -8, -19, -54, -7, 7, 3, -33, -19, -29, 0, -27, -14, -23, -23, -17, -36, -40, -36, -16, -35, -55, -34, -43, -36, -52, -53, -41, -47, -20, -23, -40, -33, -32, -46, -37, -104, 18, -45, -119, -42, 110, 232, 280, -87, -4, -107, -34, -30, 66, 98, 275, -111, -104, -100, -120, -103, -45, -62, -80, -80, -57, -51, -38, -48, -18, -52, -70, -79, -73, -74, -47, -55, -43, -52, -58, -109, -90, -51, -67, -57, -59, -70, -74, -109, -87, -70, -58, -43, -64, -68, -84, -103, -96, -77, -71, -70, -69, -78, -79, 1, 1, 1, -1, 0, -1, 1, 0, 14, 30, 25, 68, 50, 79, 36, 3, 20, 38, 36, 37, 33, 25, 45, 10, 23, 33, 30, 33, 24, 26, 13, 20, 25, 34, 10, -1, 5, 3, 33, 25, -10, -60, -11, -40, -18, -13, -20, 11, -10, -30, -20, -30, -10, -31, -35, 1, 1, -1, 2, -1, 1, -2, 1, -2, 30, 34, 20, 86, 40, 58, 34, -71, 16, 30, 26, 75, 59, 85, -10, 27, 21, 28, 18, 46, 30, 27, 27, 20, 31, -6, 1, -21, -30, 2, -34, 24, -15, -9, -32, -23, -50, -36, -25, 0, -17, -107, 39, -115, 47, -57, -25, -50, -106, -40, -80, -50, -48, -49, -15, -92, -21, -47, -44, -30, -22, -23, -11, -40, 40, 15, 38, 118, 36, 59, -75, -12, 18, 33, 45, 78, 58, 67, 23, -172, -4, 12, 22, 30, 24, 20, 29, 7, 17, -13, 4, 1, -29, 3, -8, 34, -72, -31, -7, -28, -21, 17, -25, 13, -66, -98, 52, -18, -9, -7, 8, -77, -22, 4, -28, -70, -56, -47, -47, -42, 1, 15, 3, -24, -1, -16, 4, -10, 27, 20, 25, 91, 29, 53, 8, 32, 23, 1, 4, 39, 5, 17, -123, -8, 20, -5, 25, 46, 22, 7, 9, 10, 27, -27, 13, 0, -43, 17, -64, 21, -2, -14, -11, -19, -48, -7, -14, -19, -52, -56, -72, -78, -51, -59, -92, -114, -33, -83, -35, -5, -58, -29, -58, -21, -53, -51, -46, 4, -40, -29, -44, -59, -35, -53, -11, 82, -34, 61, -158, -149, 0, -12, -43, 9, -31, 8, -75, -71, -42, -68, -395, -31, -85, -55, -432, -60, -96, -169, -89, -152, -66, -392, -87, -61, -78, -158, -62, -63, -55, 23, -38, -58, -102, -131, -58, -172, -99, -87, -66, -80, -85, -85, -121, -165, -142, -94, -137, -66, -52, -87, -69, -90, -85, -142, -151, -149, -101, -64, -70, -7, -8, -27, -46, -44, -144, -36, -50, -25, -23, -15, -48, -66, -146, -53, -74, -48, -41, -28, -11, -29, -115, -56, -164, -67, -77, -56, -39, -9, -108, -95, -105, -57, -95, -40, -55, -27, -86, -55, -104, -79, -66, -87, -23, -23, -103, -84, -91, -106, -109, -101, -87, -68, -120, -100, -89, -102, -49, -43, -67, -23},
    {-1, -1, -1, 1, 1, -1, 0, 2, 5, 14, 27, 87, 71, 73, 54, 73, -25, -13, -11, 3, 8, 29, 33, 33, -19, -24, -25, -30, -24, -16, -10, -8, -12, -29, -29, -46, -25, -36, -25, -15, -16, -27, -34, -31, -30, -18, -38, -7, -3, 0, -13, 26, -13, -19, -25, -4, 2, 1, 1, 0, -1, -1, 2, 2, -20, -39, -41, -39, -88, -25, -23, -14, -48, -83, -109, -103, -281, -279, -55, -52, -68, -82, -281, -68, -297, -116, -90, -84, -45, -40, -38, -32, -38, -51, -29, -45, -38, -40, -26, 4, 8, -24, -29, -36, -23, -36, -21, -36, -26, -40, -21, -24, 0, -23, -34, -31, -26, -49, -44, -22, 30, 11, -26, -21, -20, -25, -14, 0, -28, -31, -68, -39, -52, -33, -51, -41, -58, -60, -93, -51, -171, -62, -97, -47, -51, -77, -100, -102, -29, -143, -54, -59, -48, -52, -56, -33, -54, -24, -56, -40, -53, -62, -36, -45, -27, -50, -37, -74, -61, -50, -57, -37, -44, -37, -60, -40, -45, -35, -44, -7, -28, -55, -39, -66, -7, -8, -26, -18, -39, -30, -23, -22, -112, -139, -313, -628, -651, -592, -95, -102, -44, -31, -29, -75, -46, -61, -59, -60, -67, -70, -35, -62, -54, -10, -42, -56, -48, -50, -44, -80, -47, -21, -45, -57, -41, -37, -45, -29, -52, -32, -54, -47, -15, -24, -30, -23, -19, -15, 3, -19, -12, -19, -34, -47, -38, -39, -14, -8, -21, -21, -14, -40, -25, -28, -19, -30, -131, -143, -195, -304, -480, -234, -129, -127, -95, -86, -106, -93, -68, -67, -120, -102, -78, -94, -78, -95, -63, -89, -83, -83, -69, -91, -68, -88, -84, -72, -82, -95, -86, -54, -62, -57, -80, -86, -86, -92, -60, -58, -69, -39, -63, -30, -83, -80, -76, -72, -58, -61, -58, -84, -81, -99, 0, -52, -38, -80, -34, 0, -48, -22, -30, -63, -24, -57, -59, -151, -587, -120, -41, -62, -52, -85, -148, -159, -618, -387, -8, -35, -40, -47, -52, -48, -14, -9, -4, 27, 7, 3, -8, -6, 6, 8, 7, 59, 72, 57, 36, 28, 21, 27, -4, 46, 71, 75, 62, 53, 45, 24, 20, 44, 60, 69, 69, 68, 48, 25, 13, 8, 19, 15, 20, 31, 21, 4, -1, -2, -1, 0, -2, -1, 0, 1, 4, 32, 19, 19, 21, 47, 37, 11, 11, 29, 32, 23, 27, 21, 39, 7, 5, 25, 31, 26, 35, 30, 21, 7, 5, 8, 13, 21, 7, 7, 7, 1, -35, -61, -89, -52, -59, -72, -85, -30, -86, -119, -99, -96, -135, -84, -69, -51, -2, 0, -2, -1, -1, 1, 2, 0, 51, 19, 60, 40, 49, 53, 36, 31, 19, 25, 39, 23, 34, 50, 39, 38, 25, 44, 31, 49, 31, 27, 37, 35, 32, -1, 27, -15, 32, 23, 19, 43, 40, 8, -1, -4, -41, -23, -7, 20, 58, -3, -266, -96, -258, -134, -60, 36, 24, 38, 64, -8, 5, -18, -12, 13, -25, -13, -19, -61, -60, -48, -18, 1, 55, 50, 36, 100, 110, 39, 45, 8, 42, 49, 42, 54, 55, 65, 58, 83, 34, 41, 39, 47, 37, 36, 48, 19, 41, 4, 21, 11, 11, 47, 13, 47, 17, -5, -16, 19, -14, -24, 7, 21, -1, -27, -253, -58, -91, -109, -42, -36, 25, 8, 0, -50, -76, -35, -21, 2, -21, -49, -32, -44, -49, -42, -26, -7, 42, 33, 47, 69, 51, 64, 43, 59, 39, 29, 60, 46, 60, 43, 92, 65, 38, 46, 55, 50, 48, 36, 37, 57, 43, -7, 45, 10, 45, 26, 31, 40, 11, 35, 17, 34, -16, -7, -2, 46, -22, -79, -118, -74, -135, -122, -73, -43, -9, -33, -30, -92, -107, -71, -72, -12, -64, -61, -131, -160, -158, -133, -20, -52, 37, 34, 40, 105, 161, 595, 578, 611, 45, 40, 43, 47, 41, 61, 68, 47, 42, 27, 14, 59, 17, 20, 42, 22, 1, -2, 7, 38, 65, 19, 9, -8, -30, -31, -53, 21, -14, 5, -54, -2, -25, -240, -285, -92, -272, -249, -243, -25, 9, -13, -60, -145, -252, -180, -48, -9, 54, 11, -21, -182, -154, -221, -122, 18, -1, 21, 26, 18, 28, 33, 36, 48, -1, -1, -13, 0, 8, 3, 15, 20, 19, 1, 5, 1, 1, 7, 8, 16, 4, 1, -16, -8, 4, 12, 11, 16, 2, -25, -18, -19, 3, 12, 8, -2, -20, -28, -5, -4, -3, 9, -2, -7, -39, -47, -30, -1, 8, 17, 17, -20, -59, -63, -37, -46, -31, -39, -30, -22},
    {2, 1, 0, 2, 0, 2, 0, -1, 21, 10, 8, 21, 8, 4, -31, 7, 30, 35, 20, 24, 26, 1, 20, 33, 26, 15, 19, 16, 13, 18, 23, 26, 24, 13, 15, 18, 15, 14, 21, 28, 20, 20, 19, 20, 20, 24, 14, 25, 33, 24, 19, 25, 27, 10, 19, 30, 2, 2, 2, 1, -2, -2, -1, 1, 17, 39, 29, 31, 30, 29, 33, 11, 19, 13, 27, 38, 0, 8, 8, 24, -5, 21, 22, 34, 22, 18, 18, 27, 29, 37, 45, 47, 49, 37, 40, 16, 25, 52, 50, 54, 46, 47, 33, 44, 39, 42, 68, 51, 55, 54, 41, 31, 61, 52, 60, 55, 52, 40, 47, 41, 51, 44, 61, 43, 56, 59, 49, 45, 39, 42, 26, 28, 49, 22, 59, 43, 46, 34, 27, 45, 27, 45, 24, 36, 45, 26, 25, 26, 49, 30, 52, 30, 44, 50, 54, 49, 42, 47, 48, 44, 48, 46, 63, 49, 54, 45, 49, 45, 34, 45, 53, 63, 55, 53, 37, 44, 45, 40, 66, 36, 54, 31, 36, 48, 57, 59, 44, 71, 50, 40, 56, 59, 72, 82, 41, 44, 43, 49, 72, 65, 88, 93, 91, 54, 66, 65, 58, 83, 93, 77, 81, 56, 81, 73, 74, 82, 81, 88, 84, 65, 57, 77, 75, 70, 76, 73, 86, 77, 73, 73, 59, 76, 78, 90, 79, 70, 66, 81, 67, 68, 84, 83, 86, 90, 83, 79, 63, 82, 89, 96, 90, 81, 85, 80, 79, 87, -460, -434, -506, -338, -349, -83, -393, -498, -400, -425, -284, -179, -389, -254, -413, -367, -427, -425, -410, -395, -352, -330, -401, -420, -437, -441, -436, -463, -414, -417, -422, -448, -493, -456, -427, -421, -478, -436, -465, -446, -433, -485, -447, -475, -453, -460, -436, -444, -414, -452, -508, -490, -494, -488, -460, -416, -459, -485, -508, -551, -493, -442, -458, -449, -6, -30, 8, 37, 10, 6, 0, -8, -17, -13, 21, 25, 11, 16, 26, -7, 8, 11, 18, 26, 24, 25, 26, 19, 19, 29, 33, 25, 30, 32, 37, 19, 19, 26, 33, 35, 34, 43, 41, 27, 12, 26, 31, 38, 40, 36, 37, 23, -6, 4, 16, 28, 32, 29, 30, 14, -11, -16, -2, 5, 8, 12, 7, 13, -2, 1, 2, -2, 2, 0, 1, 2, -19, -9, -18, -7, -16, 1, 0, -21, -11, -8, -8, -9, -8, -2, 1, -16, -9, -11, 0, -6, -1, -6, -18, -18, -19, -9, -13, -2, -14, -12, -18, -32, -42, -33, -41, -19, -14, -15, -54, -45, -57, -43, -62, -56, -64, -72, -82, -66, -1, -1, 1, 1, 1, -1, 1, 1, -55, -76, -91, -68, -71, -58, -94, -46, -66, -76, -78, -65, -59, -55, -74, -68, -76, -66, -77, -62, -64, -77, -63, -69, -74, -97, -77, -73, -86, -70, -85, -60, -75, -65, -61, -69, -71, -54, -55, -54, -77, -84, -62, -43, -30, -42, -63, -54, -68, -69, -87, -67, -74, -84, -50, -63, -44, -78, -50, -27, -74, -5, -79, -52, -73, -95, -76, -71, -93, -67, -37, -37, -60, -63, -60, -63, -67, -44, -56, -72, -71, -60, -67, -71, -75, -64, -61, -81, -50, -90, -64, -63, -66, -58, -108, -55, -76, -63, -79, -61, -49, -60, -54, -64, -75, -92, -71, -64, -51, -54, -49, -76, -74, -64, -91, -50, -62, -64, -71, -70, -53, -73, -80, -40, -80, -25, -83, -72, -118, -121, -120, -108, -110, -103, -118, -121, -137, -125, -132, -124, -107, -112, -131, -135, -147, -123, -126, -117, -122, -126, -130, -129, -135, -129, -133, -134, -125, -121, -125, -125, -160, -124, -131, -127, -95, -131, -94, -110, -131, -130, -144, -107, -100, -109, -83, -132, -120, -115, -128, -159, -107, -134, -125, -123, -121, -108, -112, -67, -69, -102, -99, -112, -227, -193, -221, -238, -212, -195, -172, -201, -245, -187, -211, -127, -216, -168, -172, -188, -207, -211, -232, -252, -233, -222, -198, -211, -231, -226, -250, -230, -240, -234, -271, -213, -261, -228, -244, -262, -235, -261, -220, -195, -234, -246, -230, -235, -223, -217, -185, -180, -228, -223, -239, -349, -263, -233, -211, -221, -166, -169, -191, -247, -242, -214, -159, -128, 19, 5, 15, 15, 21, 26, 36, 29, -2, 13, 16, 19, 18, 19, 26, 25, 0, 10, 8, 10, 9, 9, 11, 17, 9, 22, 17, 11, 6, 5, 19, 10, 3, 29, 12, 8, 7, 19, 22, 17, 14, 22, 10, 8, 5, 15, 22, 16, 26, 27, 14, 26, 21, 19, 22, 12, 20, 16, 20, 10, 9, 8, 5, 1},
    {-2, -1, 2, 2, 1, -1, 2, 1, -85, -169, -41, 50, -83, -26, -12, 361, -29, -11, -47, 28, -6, 9, 10, -1, 14, 17, 12, 20, 16, 13, 37, 24, 19, 28, 33, 50, 26, 30, 23, 15, 5, 26, -20, 65, -12, 20, 30, 13, 14, 25, 15, 72, 12, 27, 29, 12, 0, 0, 1, -1, -2, -1, 0, -1, -12, 17, 42, 13, 21, -1, 42, -1, 21, -13, 42, 26, -9, 16, -12, -1, 12, 22, -57, -71, -105, -72, -20, 0, 21, -11, 19, 31, 1, -13, 22, 1, 29, 35, 27, 7, 20, 29, 25, 25, 28, 26, 58, 58, 51, -6, 36, 28, 9, 13, 16, 70, 1, 60, 11, 24, 31, 29, 27, 44, 24, 24, 26, 39, 17, 22, 2, -15, -3, 3, 20, 14, 26, 32, 3, 18, -5, 4, 2, 15, 22, 6, -40, -16, -19, -30, -29, -15, -3, 11, -21, 38, -2, 32, 16, 14, 31, 3, 37, 32, 25, 27, 23, 31, 6, 38, -3, 59, 8, 41, 40, 22, 25, 28, 40, 66, 42, 14, 50, 10, 35, 54, 18, 39, 14, 39, 22, 21, -46, -54, -32, -182, -162, -130, -14, -73, 34, 16, 5, -10, 20, 3, -30, 27, 33, 34, 28, -13, 0, -24, -18, 25, 54, 63, 50, 13, 59, 48, 38, 31, 24, 22, 26, 5, 33, 29, -3, 21, 40, 34, 40, 7, 42, 39, 23, 21, 36, 22, 43, 19, 47, 48, -33, 23, 39, 40, 38, 19, 43, 36, 27, 39, 52, 39, 34, -30, 36, -98, -35, 33, 95, 109, 123, 72, -33, 27, 72, 92, 120, 99, 136, 66, 128, 39, 48, 48, 114, 111, 90, 128, 96, 121, 85, 119, 115, 98, 127, 114, 115, 103, 89, 102, 109, 138, 87, 130, 119, 144, 117, 106, 120, 113, 127, 114, 130, 120, 134, 97, 124, 126, 99, 110, 112, 117, 74, 84, -42, -39, -24, -27, 13, -8, -29, -35, -27, -65, 27, 33, 53, 50, 11, -5, -18, -20, 40, 61, 90, 46, 2, -1, -3, 2, 2, 30, 36, 44, 17, 2, 5, 16, 23, 46, 34, 34, 23, 5, 3, 31, 16, 30, 14, 33, 37, 24, -2, 12, -3, 33, 11, 32, 36, 23, -13, 19, 15, 17, 30, 24, 23, 20, -2, -2, -2, 2, 1, 0, 2, -1, 3, -20, -6, -11, 1, -20, -18, -1, -9, -21, -14, -9, -14, -5, -16, -4, -7, -4, 11, -10, 8, -17, -8, -8, 0, -40, 1, -88, 10, -8, -11, -5, -3, -4, 19, -2, 10, 8, 22, 2, -7, 3, 18, -4, 41, 41, 63, 10, 0, 2, -2, -2, 1, 0, 0, 0, 31, -28, -38, -42, -33, -52, -23, -403, -34, -40, -35, -40, -34, -38, -79, -55, -29, -48, -23, -40, -23, -37, -35, -44, -25, -31, -26, -19, -4, -13, -49, -39, -49, -58, -3, -154, 15, -59, -22, -50, -66, -10, -20, -33, -14, 6, -118, -28, -24, -39, -82, -126, -32, 14, -59, -53, -47, -51, -42, -30, -63, -18, -41, -26, -47, 99, -47, -114, -64, -26, -41, -405, -25, -53, -39, -56, -30, -61, -40, -105, -43, -43, -45, -41, -41, -28, -48, -58, -41, -40, -16, -31, 7, -38, -60, -46, -22, -68, -39, -133, -27, -3, -34, -68, -21, -27, 6, -34, 17, 32, -29, -20, -33, -37, -35, -36, -25, 0, -42, -3, -55, -54, -51, -26, -62, -7, -6, -39, -80, -69, -80, -83, -81, -82, -85, -95, -109, -103, -83, -63, -69, -89, -106, -91, -89, -71, -78, -88, -59, -77, -50, -101, -73, -46, -57, -45, -55, -77, -99, -87, -35, -77, -39, -227, -32, -50, -41, -80, -90, -41, -18, -112, -4, 0, -76, -64, -58, -82, -57, -162, -21, -13, -54, -103, -102, -101, -36, -178, 4, -22, -130, -123, -93, -151, -167, -132, -140, -169, -104, -141, -129, -150, -131, -138, -113, -131, -119, -158, -128, -105, -119, -149, -110, -117, -130, -148, -105, -30, -68, -107, -74, -134, -145, -134, -24, -178, -104, -290, -83, -118, -5, -137, -108, -64, -54, -150, -50, 50, -109, -88, -137, -139, -128, -237, -14, -40, -143, -142, -147, -132, -102, -164, -166, -8, -194, -136, -20, 4, 11, 0, 22, 6, 9, -26, 10, 55, 70, 30, 38, 35, 26, 27, 7, 64, 65, 55, 52, 39, 44, 11, 11, 52, 70, 59, 54, 44, 35, 10, -17, 44, 51, 43, 48, 53, 36, 32, -26, 9, 15, 0, 29, 20, 29, 29, -31, 13, 21, -8, 26, 22, 4, -3, -56, -21, -35, -31, 24, 24, -9, -31},
    {1, 1, -2, 1, 1, 2, -1, 0, 8, 14, 4, 8, 29, 32, 48, 46, 15, 2, 0, 4, 7, 13, 17, 32, 25, 9, 12, -2, 12, 14, 15, 25, 14, 10, 10, 13, 10, 10, 10, 18, 18, 16, 12, 13, 11, 14, 13, 20, 20, 7, 11, 11, 10, 13, 16, 22, 1, 2, -2, 0, 1, -1, 0, 1, -4, -3, -2, -9, -29, -8, -6, -7, -61, -96, -82, -79, -68, -47, -94, -31, -84, -72, -31, -35, -36, -27, -35, -58, -99, -48, -36, -41, -40, -33, -49, -86, -77, -76, -48, -37, -56, -51, -75, -91, -75, -62, -48, -39, -57, -42, -56, -67, -4, -42, -40, -64, -49, -48, -59, -78, -98, -15, -76, -70, -57, -44, -12, -22, -29, -32, -34, -24, -46, -17, -44, -33, -90, -89, -45, -37, -44, -70, -71, -47, -91, -63, -40, -72, -43, -68, -53, -89, -78, -59, -61, -49, -51, -43, -46, -71, -56, -60, -56, -44, -49, -45, -64, -55, -92, -51, -45, -50, -51, -50, -39, -73, -61, -79, -42, -47, -46, -67, -66, -44, -89, -58, -99, -54, -73, -76, -48, -69, -94, -74, -50, -69, -61, -58, -64, -93, -69, -81, -67, -63, -70, -86, -77, -72, -80, -91, -77, -90, -89, -88, -96, -66, -88, -77, -67, -90, -92, -75, -73, -102, -91, -83, -90, -103, -109, -98, -95, -104, -85, -98, -69, -98, -89, -90, -83, -93, -91, -87, -75, -85, -86, -115, -98, -103, -88, -75, -85, -123, -122, -113, -116, -105, -99, -102, -90, -88, -126, -78, -81, -101, -211, -146, -174, -104, -133, -129, -120, -151, -127, -106, -130, -118, -155, -126, -138, -158, -152, -134, -125, -182, -110, -127, -133, -152, -140, -147, -145, -139, -128, -144, -140, -143, -140, -151, -150, -150, -142, -152, -162, -141, -148, -121, -138, -153, -137, -150, -141, -139, -163, -121, -126, -129, -140, -148, -148, -150, 56, 63, 41, 19, 31, 33, 42, 41, 58, 60, 24, 18, 18, 20, 15, 43, 36, 35, 28, 22, 17, 12, 18, 32, 23, 27, 24, 21, 17, 17, 24, 31, 14, 27, 21, 21, 17, 18, 23, 30, 12, 19, 18, 16, 16, 20, 17, 23, 47, 40, 37, 20, 20, 16, 16, 28, 52, 54, 37, 24, 19, 30, 36, 36, 0, 0, 2, -2, 1, 1, 0, 0, -21, -4, -19, -26, -22, -12, -22, -28, -18, -15, -7, -2, -3, -20, -11, -18, -14, -17, -14, -13, -13, -12, -14, -15, -24, -38, -32, -26, -33, -37, -36, -38, -78, -112, -111, -88, -110, -164, -124, -81, -184, -180, -213, -278, -272, -238, -200, -213, 2, 2, -1, 0, -1, -2, 2, -2, -167, -159, -145, -96, -148, -165, -176, -123, -85, -94, -106, -117, -118, -172, -153, -224, -193, -106, -99, -112, -87, -100, -108, -165, -84, -123, -78, -103, -99, -99, -112, -144, -134, -51, -84, -115, -124, -128, -39, -91, -165, -124, -102, -124, -80, -62, -122, -103, 22, -58, -53, -168, -189, 58, -194, -20, -36, -34, -26, -18, -31, -130, -26, -7, -126, -140, -156, -135, -167, -168, -160, -121, -152, -105, -110, -131, -137, -141, -152, -181, -101, -109, -126, -128, -146, -148, -153, -108, -83, -176, -141, -151, -162, -164, -127, -55, -130, -155, -156, -156, -135, -159, -160, -145, -149, -157, -160, -189, -154, -157, -97, -111, -132, -149, -173, -150, -115, -155, -101, -99, -101, -162, -161, -155, -133, -199, -171, -21, -163, -192, -149, -117, -145, -192, -156, -153, -117, -124, -154, -164, -153, -129, -126, -232, -125, -101, -138, -137, -103, -111, -151, -126, -212, -135, -115, -121, -110, -108, -179, -94, -182, -130, -162, -178, -136, -133, -161, -140, -217, -122, -117, -171, -154, -197, -108, -176, -200, -130, -144, -119, -137, -155, -108, -129, -116, -81, -106, -202, -127, -149, -127, -201, -134, -192, -184, -198, -256, -263, -112, -133, -127, -117, -133, -124, -144, -124, -116, -116, -91, -112, -126, -113, -153, -167, -115, -101, -99, -171, -131, -185, -212, -162, -157, -127, -153, -114, -144, -167, -198, -201, -205, -79, -102, -115, -131, -204, -240, -252, -167, -44, -132, -129, -122, -187, -132, -139, -181, -111, -198, -142, -137, -118, -142, -188, -139, -172, 18, 25, 13, 7, -2, 2, 7, 1, 25, 23, 21, 10, 9, 15, 16, 7, 26, 29, 25, 25, 31, 27, 21, 24, 24, 22, 32, 31, 30, 38, 33, 35, 21, 25, 31, 43, 43, 33, 36, 22, 23, 25, 39, 39, 42, 50, 38, 20, 29, 28, 44, 46, 52, 48, 45, 41, 22, 31, 50, 60, 44, 52, 56, 32}
};

// Hidden Layer Biases: Shape [16]
const int16_t HIDDEN_BIASES[16] = {
    60, 99, 27, 23, 154, 51, 70, -65, -84, 31, 97, -97, 14, 57, 34, 102
};

// Output Layer Weights: Shape [16] (Flattened out_features x in_features)
const int16_t OUTPUT_WEIGHTS[16] = {
    -11, 5, -8, -26, 11, 17, -12, 20, 5, -5, -17, -6, -5, 11, 5, 17
};

// Output Layer Biases: Shape [1]
const int32_t OUTPUT_BIAS = -1782;

#endif // CHESS_NET_HPP
